Language model created by QuickLM on Wed Jul 24 00:20:09 EDT 2013
Copyright (c) 1996-2010 Carnegie Mellon University and Alexander I. Rudnicky

The model is in standard ARPA format, designed by Doug Paul while he was at MITRE.

The code that was used to produce this language model is available in Open Source.
Please visit http://www.speech.cs.cmu.edu/tools/ for more information

The (fixed) discount mass is 0.5. The backoffs are computed using the ratio method.
This model based on a corpus of 36549 sentences and 118 words

\data\
ngram 1=118
ngram 2=295
ngram 3=756

\1-grams:
-4.0044 ************ -0.2825
-1.1090 </s> -0.2659
-1.1090 <s> -0.2288
-1.8773 ABOUT -0.2825
-3.0775 ADVANCE -0.2999
-3.0775 AIRPLANE -0.2998
-2.6004 AND -0.2990
-3.3785 AWAY -0.3005
-2.7765 BEAR -0.2653
-3.0775 BEETLE -0.2655
-2.7765 BLACK -0.2985
-3.3785 BLAST -0.3008
-2.7765 BLUE -0.2990
-3.3785 BOLT -0.2999
-2.6004 BOTTLE -0.2659
-3.0775 BROWN -0.3003
-3.3785 BUG -0.3005
-1.7122 CAN -0.2925
-2.9014 CLEANER -0.2647
-3.3785 CLEANSER -0.2659
-2.7765 CLOCK -0.2659
-3.3785 COMPACT -0.3005
-3.3785 CONTAINER -0.2659
-3.0775 CREAM -0.2647
-3.0775 DENTAL -0.3005
-3.0775 DEODORANT -0.2659
-2.7765 DETERGENT -0.2645
-3.0775 DIGITAL -0.3003
-3.3785 DISINFECT -0.3005
-3.0775 DISINFECTANT -0.3005
-2.9014 DUCK -0.2641
-3.3785 DUCKY -0.3001
-2.9014 DUSTER -0.2659
-3.3785 EXPO -0.3005
-3.0775 FACES -0.2659
-2.5334 FAN -0.2659
-2.0222 FIND -0.2664
-3.3785 FINGERS -0.2659
-2.9014 FLOSS -0.2659
-1.5962 FOR -0.2825
-3.0775 FRUCTIS -0.2992
-2.0222 GET -0.2664
-2.0222 GIVE -0.2664
-3.0775 GREEN -0.2999
-2.9014 HAND -0.3001
-3.3785 HEAD -0.2999
-3.3785 HEAVY -0.3001
-3.3785 HOLE -0.3005
-2.6004 IN -0.2972
-1.8972 INFORMATION -0.2839
-3.7034 IS -0.2825
-3.0775 KEYCHAIN -0.2659
-3.0775 KITCHEN -0.3001
-2.5334 LADYBUG -0.2635
-2.9014 LIGHT -0.2659
-3.3785 LIGHTNING -0.3008
-3.3785 LIKE -0.3003
-3.3785 LIQUID -0.2659
-2.6795 LOCK -0.2659
-3.3785 LYSOL -0.3007
-3.3785 MASTER -0.3001
-2.9014 MAXELL -0.2994
-1.7078 ME -0.2692
-3.0775 MINI -0.2998
-2.9014 MONSTER -0.2655
-3.4024 MORE -0.2952
-3.3785 OF -0.3007
-2.6004 OUTLET -0.2657
-2.7765 PAD -0.2657
-3.0775 PAPER -0.2653
-3.0775 PENCIL -0.3003
-3.0775 PEPPER -0.3007
-2.9014 PILLOW -0.2659
-3.3785 PINK -0.3007
-3.3785 PIXEL -0.3003
-1.7740 PLEASE -0.2839
-3.3785 POWER -0.2999
-2.1982 PRICES -0.2899
-2.1982 PRICING -0.2899
-2.9014 PUNCH -0.2659
-2.7765 RED -0.2981
-1.8972 REVIEWS -0.2839
-3.3785 RUBBER -0.3008
-3.3785 SALT -0.2999
-3.3785 SHAKERS -0.2659
-2.7765 SHAMPOO -0.2647
-2.7765 SHARPENER -0.2659
-3.3785 SHOULDERS -0.3003
-2.0222 SHOW -0.2664
-3.3785 SMALL -0.2998
-3.3785 SOLAR -0.2998
-1.7211 SOME -0.2842
-3.3785 SPEED -0.3008
-3.3785 SPLITTER -0.2659
-3.0775 SQUIRREL -0.2651
-2.9014 STAPLER -0.2659
-3.3785 STICK -0.3007
-3.3785 STUFF -0.2999
-3.3785 SWINGLINE -0.3005
-3.2263 TELL -0.2924
-3.3785 THA -0.3007
-1.5093 THAT -0.2760
-2.0563 THE -0.2930
-3.3785 THING -0.3008
-3.3785 THIS -0.2998
-2.9014 THOSE -0.2999
-3.0775 TIDE -0.3003
-2.6795 TIMER -0.2659
-3.3785 TINY -0.2998
-2.7765 TUBE -0.2659
-3.0775 USB -0.2994
-3.3785 VASELINE -0.2659
-3.4024 WHAT -0.2924
-2.4754 WHITE -0.2977
-2.9014 WIPES -0.2647
-3.3785 WITH -0.2972
-2.4754 YELLOW -0.2983
-1.7122 YOU -0.2763

\2-grams:
-2.2695 ************ THA 0.0000
-0.4003 ************ THAT -0.0000
-1.1234 ************ THE -0.0580
-2.2695 ************ THIS 0.0000
-1.7924 ************ THOSE 0.0000
-0.6021 </s> </s> -0.3010
-3.1965 <s> ************ 0.0000
-0.6021 <s> <s> -0.1761
-0.9087 <s> CAN 0.0000
-1.8162 <s> FIND 0.0000
-1.8162 <s> GET 0.0000
-1.6402 <s> GIVE 0.0000
-1.3331 <s> PLEASE 0.0000
-1.6402 <s> SHOW 0.0000
-3.1965 <s> TELL 0.0000
-2.5944 <s> WHAT 0.0000
-2.2695 ABOUT THA 0.0000
-0.4003 ABOUT THAT -0.0000
-1.1234 ABOUT THE -0.0580
-2.2695 ABOUT THIS 0.0000
-1.7924 ABOUT THOSE 0.0000
-0.6021 ADVANCE CLOCK 0.0000
-0.6021 ADVANCE DIGITAL 0.0000
-0.3010 AIRPLANE FAN 0.0000
-1.0792 AND PEPPER -0.1761
-1.0792 AND SHOULDERS 0.0000
-0.4771 AND WHITE -0.1761
-0.3010 AWAY DUSTER 0.0000
-0.6021 BEAR </s> -0.1761
-0.6021 BEAR PILLOW 0.0000
-0.6021 BEETLE </s> -0.1761
-0.6021 BEETLE KITCHEN 0.0000
-0.6021 BLACK AND -0.1249
-0.9031 BLACK LOCK 0.0000
-0.9031 BLACK MAXELL -0.2218
-0.3010 BLAST AWAY 0.0000
-0.6021 BLUE AND -0.1249
-0.9031 BLUE MINI 0.0000
-0.9031 BLUE MONSTER -0.1249
-0.3010 BOLT OUTLET -0.0669
-0.3010 BOTTLE </s> -0.1761
-0.3010 BROWN BEAR 0.0000
-0.3010 BUG LIGHT 0.0000
-0.3010 CAN YOU 0.0000
-0.4771 CLEANER </s> -0.1761
-0.7782 CLEANER IN 0.0000
-0.3010 CLEANSER </s> -0.1761
-0.3010 CLOCK </s> -0.1761
-0.3010 COMPACT STAPLER 0.0000
-0.3010 CONTAINER </s> -0.1761
-0.6021 CREAM </s> -0.1761
-0.6021 CREAM IN 0.0000
-0.3010 DENTAL FLOSS 0.0000
-0.3010 DEODORANT </s> -0.1761
-0.6021 DETERGENT </s> -0.1761
-0.9031 DETERGENT BOTTLE 0.0000
-0.9031 DETERGENT LIQUID 0.0000
-0.3010 DIGITAL CLOCK 0.0000
-0.3010 DISINFECT WIPES -0.2218
-0.3010 DISINFECTANT WIPES -0.1249
-0.7782 DUCK </s> -0.1761
-0.7782 DUCK CLOCK 0.0000
-0.7782 DUCK TIMER 0.0000
-0.3010 DUCKY TIMER 0.0000
-0.3010 DUSTER </s> -0.1761
-0.3010 EXPO CLEANER -0.1249
-0.3010 FACES </s> -0.1761
-0.3010 FAN </s> -0.1761
-1.3802 FIND INFORMATION 0.0000
-0.6021 FIND ME -0.0130
-1.6812 FIND PRICES 0.0000
-1.6812 FIND PRICING 0.0000
-1.3802 FIND REVIEWS 0.0000
-0.9031 FIND SOME 0.0000
-0.3010 FINGERS </s> -0.1761
-0.3010 FLOSS </s> -0.1761
-2.2695 FOR THA 0.0000
-0.4003 FOR THAT -0.0000
-1.1234 FOR THE -0.0580
-2.2695 FOR THIS 0.0000
-1.7924 FOR THOSE 0.0000
-0.6021 FRUCTIS IN 0.0000
-0.6021 FRUCTIS SHAMPOO -0.0969
-1.3802 GET INFORMATION 0.0000
-0.6021 GET ME -0.0130
-1.6812 GET PRICES 0.0000
-1.6812 GET PRICING 0.0000
-1.3802 GET REVIEWS 0.0000
-0.9031 GET SOME 0.0000
-1.3802 GIVE INFORMATION 0.0000
-0.6021 GIVE ME -0.0130
-1.6812 GIVE PRICES 0.0000
-1.6812 GIVE PRICING 0.0000
-1.3802 GIVE REVIEWS 0.0000
-0.9031 GIVE SOME 0.0000
-0.3010 GREEN BOTTLE 0.0000
-0.7782 HAND LIKE 0.0000
-0.4771 HAND PAD 0.0000
-0.3010 HEAD AND -0.2632
-0.3010 HEAVY LOCK 0.0000
-0.3010 HOLE PUNCH 0.0000
-0.3010 IN THE -0.2218
-0.6021 INFORMATION ABOUT 0.0000
-0.6021 INFORMATION FOR 0.0000
-2.2695 IS THA 0.0000
-0.4003 IS THAT -0.0000
-1.1234 IS THE -0.0580
-2.2695 IS THIS 0.0000
-1.7924 IS THOSE 0.0000
-0.3010 KEYCHAIN </s> -0.1761
-0.3010 KITCHEN TIMER 0.0000
-1.1461 LADYBUG </s> -0.1761
-0.8451 LADYBUG KEYCHAIN 0.0000
-1.1461 LADYBUG KITCHEN 0.0000
-0.8451 LADYBUG LIGHT 0.0000
-1.1461 LADYBUG TIMER 0.0000
-0.3010 LIGHT </s> -0.1761
-0.3010 LIGHTNING BOLT 0.0000
-0.3010 LIKE PAD -0.0969
-0.3010 LIQUID </s> -0.1761
-0.3010 LOCK </s> -0.1761
-0.3010 LYSOL DISINFECTANT 0.0000
-0.3010 MASTER LOCK 0.0000
-0.7782 MAXELL BLAST 0.0000
-0.7782 MAXELL DUSTER 0.0000
-0.7782 MAXELL LOCK 0.0000
-2.2967 ME ABOUT 0.0000
-1.0925 ME INFORMATION 0.0000
-1.9956 ME MORE 0.0000
-1.3936 ME PRICES 0.0000
-1.3936 ME PRICING 0.0000
-1.0925 ME REVIEWS 0.0000
-0.6154 ME SOME 0.0000
-0.3010 MINI FAN 0.0000
-0.4771 MONSTER </s> -0.1761
-0.7782 MONSTER DENTAL 0.0000
-0.3010 MORE ABOUT 0.0000
-0.3010 OF PAPER -0.1761
-0.3802 OUTLET </s> -0.1761
-1.0792 OUTLET SPLITTER 0.0000
-0.4260 PAD </s> -0.1761
-0.9031 PAD OF 0.0000
-0.6021 PAPER </s> -0.1761
-0.6021 PAPER PUNCH 0.0000
-0.3010 PENCIL SHARPENER 0.0000
-0.6021 PEPPER CONTAINER 0.0000
-0.6021 PEPPER SHAKERS 0.0000
-0.3010 PILLOW </s> -0.1761
-0.3010 PINK PENCIL 0.0000
-0.3010 PIXEL PAD -0.0969
-0.8502 PLEASE FIND 0.0000
-0.8502 PLEASE GET 0.0000
-0.9752 PLEASE GIVE 0.0000
-0.9752 PLEASE SHOW 0.0000
-2.2304 PLEASE TELL 0.0000
-0.3010 POWER OUTLET -0.0669
-0.3010 PRICES FOR 0.0000
-0.3010 PRICING FOR 0.0000
-0.3010 PUNCH </s> -0.1761
-0.9031 RED BEETLE -0.1761
-0.9031 RED LADYBUG -0.2688
-0.9031 RED LOCK 0.0000
-0.9031 RED TIDE 0.0000
-0.6021 REVIEWS ABOUT 0.0000
-0.6021 REVIEWS FOR 0.0000
-0.3010 RUBBER DUCKY 0.0000
-0.3010 SALT AND -0.2632
-0.3010 SHAKERS </s> -0.1761
-0.4260 SHAMPOO </s> -0.1761
-0.9031 SHAMPOO IN 0.0000
-0.3010 SHARPENER </s> -0.1761
-0.3010 SHOULDERS SHAMPOO -0.0969
-1.3802 SHOW INFORMATION 0.0000
-0.6021 SHOW ME -0.0130
-1.6812 SHOW PRICES 0.0000
-1.6812 SHOW PRICING 0.0000
-1.3802 SHOW REVIEWS 0.0000
-0.9031 SHOW SOME 0.0000
-0.3010 SMALL FAN 0.0000
-0.3010 SOLAR LADYBUG -0.2341
-0.7782 SOME INFORMATION 0.0000
-1.0792 SOME PRICES 0.0000
-1.0792 SOME PRICING 0.0000
-0.7782 SOME REVIEWS 0.0000
-0.3010 SPEED STICK 0.0000
-0.3010 SPLITTER </s> -0.1761
-0.6021 SQUIRREL </s> -0.1761
-0.6021 SQUIRREL SHARPENER 0.0000
-0.3010 STAPLER </s> -0.1761
-0.3010 STICK DEODORANT 0.0000
-0.3010 STUFF IN 0.0000
-0.3010 SWINGLINE STAPLER 0.0000
-0.3010 TELL ME -0.2944
-0.3010 THA USB -0.1761
-2.1703 THAT AIRPLANE 0.0000
-1.8692 THAT BEAR 0.0000
-2.1703 THAT BEETLE -0.1761
-2.1703 THAT BLACK -0.2430
-1.6931 THAT BLUE 0.0000
-2.1703 THAT BROWN 0.0000
-2.1703 THAT BUG 0.0000
-2.1703 THAT CLEANER -0.2218
-2.1703 THAT COMPACT 0.0000
-1.8692 THAT CREAM 0.0000
-2.1703 THAT DENTAL 0.0000
-2.1703 THAT DEODORANT 0.0000
-1.8692 THAT DETERGENT -0.0969
-2.1703 THAT DISINFECT 0.0000
-2.1703 THAT DUCK -0.2218
-2.1703 THAT DUSTER 0.0000
-2.1703 THAT EXPO 0.0000
-2.1703 THAT FLOSS 0.0000
-2.1703 THAT FRUCTIS -0.1761
-2.1703 THAT HAND -0.1249
-2.1703 THAT HEAD 0.0000
-2.1703 THAT HEAVY 0.0000
-2.1703 THAT HOLE 0.0000
-1.6931 THAT LADYBUG -0.1549
-2.1703 THAT LIGHTNING 0.0000
-2.1703 THAT MASTER 0.0000
-1.8692 THAT MAXELL -0.1249
-2.1703 THAT MINI 0.0000
-1.8692 THAT MONSTER 0.0000
-1.8692 THAT OUTLET -0.0669
-2.1703 THAT PAPER -0.1761
-2.1703 THAT PENCIL 0.0000
-2.1703 THAT PEPPER -0.1761
-2.1703 THAT PILLOW 0.0000
-2.1703 THAT PINK 0.0000
-2.1703 THAT PIXEL 0.0000
-2.1703 THAT PUNCH 0.0000
-1.5682 THAT RED 0.0000
-2.1703 THAT SALT 0.0000
-1.8692 THAT SHAMPOO 0.0000
-2.1703 THAT SHARPENER 0.0000
-2.1703 THAT SMALL 0.0000
-2.1703 THAT SPEED 0.0000
-2.1703 THAT SQUIRREL -0.1761
-2.1703 THAT STAPLER 0.0000
-2.1703 THAT STUFF 0.0000
-2.1703 THAT SWINGLINE 0.0000
-2.1703 THAT THING 0.0000
-2.1703 THAT TIDE 0.0000
-2.1703 THAT TINY 0.0000
-2.1703 THAT USB -0.1761
-2.1703 THAT VASELINE 0.0000
-1.5682 THAT WHITE -0.1761
-1.5682 THAT YELLOW -0.0512
-1.3222 THE ADVANCE 0.0000
-1.3222 THE BLACK -0.0969
-1.6232 THE BLUE -0.1761
-1.6232 THE BROWN 0.0000
-1.6232 THE CLEANER -0.1249
-1.6232 THE CLEANSER 0.0000
-1.6232 THE DIGITAL 0.0000
-1.6232 THE FRUCTIS -0.1761
-1.3222 THE GREEN 0.0000
-1.6232 THE HAND -0.1249
-1.6232 THE LADYBUG -0.2341
-1.6232 THE RUBBER 0.0000
-1.6232 THE SOLAR 0.0000
-1.6232 THE SQUIRREL -0.1761
-1.0212 THE YELLOW -0.1383
-0.3010 THING WITH 0.0000
-0.3010 THIS LADYBUG -0.2341
-0.7782 THOSE BLACK -0.1761
-0.7782 THOSE FINGERS 0.0000
-0.7782 THOSE LYSOL 0.0000
-0.3010 TIDE DETERGENT -0.0969
-0.3010 TIMER </s> -0.1761
-0.3010 TINY FAN 0.0000
-0.3010 TUBE </s> -0.1761
-0.6021 USB AIRPLANE 0.0000
-0.6021 USB FAN 0.0000
-0.3010 VASELINE </s> -0.1761
-0.6021 WHAT CAN 0.0000
-0.6021 WHAT IS 0.0000
-0.9031 WHITE BOTTLE 0.0000
-0.9031 WHITE FACES 0.0000
-1.2041 WHITE HAND -0.2218
-0.9031 WHITE OUTLET 0.0000
-1.2041 WHITE POWER 0.0000
-0.4771 WIPES </s> -0.1761
-0.7782 WIPES IN 0.0000
-0.3010 WITH THE -0.2798
-1.2041 YELLOW BOTTLE 0.0000
-1.2041 YELLOW DISINFECTANT 0.0000
-0.9031 YELLOW DUCK -0.1249
-0.6021 YELLOW TUBE 0.0000
-1.2131 YOU FIND 0.0000
-1.2131 YOU GET 0.0000
-1.2131 YOU GIVE 0.0000
-0.6065 YOU PLEASE 0.0000
-1.2131 YOU SHOW 0.0000
-2.1162 YOU TELL 0.0000

\3-grams:
-0.3010 ************ THA USB
-2.1703 ************ THAT AIRPLANE
-1.8692 ************ THAT BEAR
-2.1703 ************ THAT BEETLE
-2.1703 ************ THAT BLACK
-1.6931 ************ THAT BLUE
-2.1703 ************ THAT BROWN
-2.1703 ************ THAT BUG
-2.1703 ************ THAT CLEANER
-2.1703 ************ THAT COMPACT
-1.8692 ************ THAT CREAM
-2.1703 ************ THAT DENTAL
-2.1703 ************ THAT DEODORANT
-1.8692 ************ THAT DETERGENT
-2.1703 ************ THAT DISINFECT
-2.1703 ************ THAT DUCK
-2.1703 ************ THAT DUSTER
-2.1703 ************ THAT EXPO
-2.1703 ************ THAT FLOSS
-2.1703 ************ THAT FRUCTIS
-2.1703 ************ THAT HAND
-2.1703 ************ THAT HEAD
-2.1703 ************ THAT HEAVY
-2.1703 ************ THAT HOLE
-1.6931 ************ THAT LADYBUG
-2.1703 ************ THAT LIGHTNING
-2.1703 ************ THAT MASTER
-1.8692 ************ THAT MAXELL
-2.1703 ************ THAT MINI
-1.8692 ************ THAT MONSTER
-1.8692 ************ THAT OUTLET
-2.1703 ************ THAT PAPER
-2.1703 ************ THAT PENCIL
-2.1703 ************ THAT PEPPER
-2.1703 ************ THAT PILLOW
-2.1703 ************ THAT PINK
-2.1703 ************ THAT PIXEL
-2.1703 ************ THAT PUNCH
-1.5682 ************ THAT RED
-2.1703 ************ THAT SALT
-1.8692 ************ THAT SHAMPOO
-2.1703 ************ THAT SHARPENER
-2.1703 ************ THAT SMALL
-2.1703 ************ THAT SPEED
-2.1703 ************ THAT SQUIRREL
-2.1703 ************ THAT STAPLER
-2.1703 ************ THAT STUFF
-2.1703 ************ THAT SWINGLINE
-2.1703 ************ THAT THING
-2.1703 ************ THAT TIDE
-2.1703 ************ THAT TINY
-2.1703 ************ THAT USB
-2.1703 ************ THAT VASELINE
-1.5682 ************ THAT WHITE
-1.5682 ************ THAT YELLOW
-1.1461 ************ THE ADVANCE
-1.4472 ************ THE BLACK
-1.4472 ************ THE BROWN
-1.4472 ************ THE CLEANER
-1.4472 ************ THE CLEANSER
-1.4472 ************ THE DIGITAL
-1.4472 ************ THE FRUCTIS
-1.4472 ************ THE HAND
-1.4472 ************ THE LADYBUG
-1.4472 ************ THE RUBBER
-1.4472 ************ THE SOLAR
-1.4472 ************ THE SQUIRREL
-1.4472 ************ THE YELLOW
-0.3010 ************ THIS LADYBUG
-0.7782 ************ THOSE BLACK
-0.7782 ************ THOSE FINGERS
-0.7782 ************ THOSE LYSOL
-2.2695 <s> ************ THA
-0.4003 <s> ************ THAT
-1.1234 <s> ************ THE
-2.2695 <s> ************ THIS
-1.7924 <s> ************ THOSE
-2.8954 <s> <s> ************
-0.6076 <s> <s> CAN
-1.5152 <s> <s> FIND
-1.5152 <s> <s> GET
-1.3391 <s> <s> GIVE
-1.0321 <s> <s> PLEASE
-1.3391 <s> <s> SHOW
-2.8954 <s> <s> TELL
-2.2934 <s> <s> WHAT
-0.3010 <s> CAN YOU
-1.3802 <s> FIND INFORMATION
-0.6021 <s> FIND ME
-1.6812 <s> FIND PRICES
-1.6812 <s> FIND PRICING
-1.3802 <s> FIND REVIEWS
-0.9031 <s> FIND SOME
-1.3802 <s> GET INFORMATION
-0.6021 <s> GET ME
-1.6812 <s> GET PRICES
-1.6812 <s> GET PRICING
-1.3802 <s> GET REVIEWS
-0.9031 <s> GET SOME
-1.2553 <s> GIVE INFORMATION
-0.7782 <s> GIVE ME
-1.5563 <s> GIVE PRICES
-1.5563 <s> GIVE PRICING
-1.2553 <s> GIVE REVIEWS
-0.7782 <s> GIVE SOME
-0.7841 <s> PLEASE FIND
-0.7841 <s> PLEASE GET
-1.0852 <s> PLEASE GIVE
-1.0852 <s> PLEASE SHOW
-2.1644 <s> PLEASE TELL
-1.2553 <s> SHOW INFORMATION
-0.7782 <s> SHOW ME
-1.5563 <s> SHOW PRICES
-1.5563 <s> SHOW PRICING
-1.2553 <s> SHOW REVIEWS
-0.7782 <s> SHOW SOME
-0.3010 <s> TELL ME
-0.6021 <s> WHAT CAN
-0.6021 <s> WHAT IS
-0.3010 ABOUT THA USB
-2.1703 ABOUT THAT AIRPLANE
-1.8692 ABOUT THAT BEAR
-2.1703 ABOUT THAT BEETLE
-2.1703 ABOUT THAT BLACK
-1.6931 ABOUT THAT BLUE
-2.1703 ABOUT THAT BROWN
-2.1703 ABOUT THAT BUG
-2.1703 ABOUT THAT CLEANER
-2.1703 ABOUT THAT COMPACT
-1.8692 ABOUT THAT CREAM
-2.1703 ABOUT THAT DENTAL
-2.1703 ABOUT THAT DEODORANT
-1.8692 ABOUT THAT DETERGENT
-2.1703 ABOUT THAT DISINFECT
-2.1703 ABOUT THAT DUCK
-2.1703 ABOUT THAT DUSTER
-2.1703 ABOUT THAT EXPO
-2.1703 ABOUT THAT FLOSS
-2.1703 ABOUT THAT FRUCTIS
-2.1703 ABOUT THAT HAND
-2.1703 ABOUT THAT HEAD
-2.1703 ABOUT THAT HEAVY
-2.1703 ABOUT THAT HOLE
-1.6931 ABOUT THAT LADYBUG
-2.1703 ABOUT THAT LIGHTNING
-2.1703 ABOUT THAT MASTER
-1.8692 ABOUT THAT MAXELL
-2.1703 ABOUT THAT MINI
-1.8692 ABOUT THAT MONSTER
-1.8692 ABOUT THAT OUTLET
-2.1703 ABOUT THAT PAPER
-2.1703 ABOUT THAT PENCIL
-2.1703 ABOUT THAT PEPPER
-2.1703 ABOUT THAT PILLOW
-2.1703 ABOUT THAT PINK
-2.1703 ABOUT THAT PIXEL
-2.1703 ABOUT THAT PUNCH
-1.5682 ABOUT THAT RED
-2.1703 ABOUT THAT SALT
-1.8692 ABOUT THAT SHAMPOO
-2.1703 ABOUT THAT SHARPENER
-2.1703 ABOUT THAT SMALL
-2.1703 ABOUT THAT SPEED
-2.1703 ABOUT THAT SQUIRREL
-2.1703 ABOUT THAT STAPLER
-2.1703 ABOUT THAT STUFF
-2.1703 ABOUT THAT SWINGLINE
-2.1703 ABOUT THAT THING
-2.1703 ABOUT THAT TIDE
-2.1703 ABOUT THAT TINY
-2.1703 ABOUT THAT USB
-2.1703 ABOUT THAT VASELINE
-1.5682 ABOUT THAT WHITE
-1.5682 ABOUT THAT YELLOW
-1.1461 ABOUT THE ADVANCE
-1.4472 ABOUT THE BLACK
-1.4472 ABOUT THE BROWN
-1.4472 ABOUT THE CLEANER
-1.4472 ABOUT THE CLEANSER
-1.4472 ABOUT THE DIGITAL
-1.4472 ABOUT THE FRUCTIS
-1.4472 ABOUT THE HAND
-1.4472 ABOUT THE LADYBUG
-1.4472 ABOUT THE RUBBER
-1.4472 ABOUT THE SOLAR
-1.4472 ABOUT THE SQUIRREL
-1.4472 ABOUT THE YELLOW
-0.3010 ABOUT THIS LADYBUG
-0.7782 ABOUT THOSE BLACK
-0.7782 ABOUT THOSE FINGERS
-0.7782 ABOUT THOSE LYSOL
-0.3010 ADVANCE CLOCK </s>
-0.3010 ADVANCE DIGITAL CLOCK
-0.3010 AIRPLANE FAN </s>
-0.3010 AND PEPPER SHAKERS
-0.3010 AND SHOULDERS SHAMPOO
-0.6021 AND WHITE BOTTLE
-0.6021 AND WHITE FACES
-0.3010 AWAY DUSTER </s>
-0.3010 BEAR </s> </s>
-0.3010 BEAR PILLOW </s>
-0.3010 BEETLE </s> </s>
-0.3010 BEETLE KITCHEN TIMER
-0.3010 BLACK AND WHITE
-0.3010 BLACK LOCK </s>
-0.3010 BLACK MAXELL LOCK
-0.3010 BLAST AWAY DUSTER
-0.3010 BLUE AND WHITE
-0.3010 BLUE MINI FAN
-0.3010 BLUE MONSTER </s>
-0.3010 BOLT OUTLET </s>
-0.3010 BOTTLE </s> </s>
-0.6021 BROWN BEAR </s>
-0.6021 BROWN BEAR PILLOW
-0.3010 BUG LIGHT </s>
-1.2131 CAN YOU FIND
-1.2131 CAN YOU GET
-1.2131 CAN YOU GIVE
-0.6065 CAN YOU PLEASE
-1.2131 CAN YOU SHOW
-2.1162 CAN YOU TELL
-0.3010 CLEANER </s> </s>
-0.3010 CLEANER IN THE
-0.3010 CLEANSER </s> </s>
-0.3010 CLOCK </s> </s>
-0.3010 COMPACT STAPLER </s>
-0.3010 CONTAINER </s> </s>
-0.3010 CREAM </s> </s>
-0.3010 CREAM IN THE
-0.3010 DENTAL FLOSS </s>
-0.3010 DEODORANT </s> </s>
-0.3010 DETERGENT </s> </s>
-0.3010 DETERGENT BOTTLE </s>
-0.3010 DETERGENT LIQUID </s>
-0.3010 DIGITAL CLOCK </s>
-0.3010 DISINFECT WIPES IN
-0.3010 DISINFECTANT WIPES </s>
-0.3010 DUCK </s> </s>
-0.3010 DUCK CLOCK </s>
-0.3010 DUCK TIMER </s>
-0.3010 DUCKY TIMER </s>
-0.3010 DUSTER </s> </s>
-0.3010 EXPO CLEANER </s>
-0.3010 FACES </s> </s>
-0.3010 FAN </s> </s>
-0.6021 FIND INFORMATION ABOUT
-0.6021 FIND INFORMATION FOR
-1.0792 FIND ME INFORMATION
-1.3802 FIND ME PRICES
-1.3802 FIND ME PRICING
-1.0792 FIND ME REVIEWS
-0.6021 FIND ME SOME
-0.3010 FIND PRICES FOR
-0.3010 FIND PRICING FOR
-0.6021 FIND REVIEWS ABOUT
-0.6021 FIND REVIEWS FOR
-0.7782 FIND SOME INFORMATION
-1.0792 FIND SOME PRICES
-1.0792 FIND SOME PRICING
-0.7782 FIND SOME REVIEWS
-0.3010 FINGERS </s> </s>
-0.3010 FLOSS </s> </s>
-0.3010 FOR THA USB
-2.1703 FOR THAT AIRPLANE
-1.8692 FOR THAT BEAR
-2.1703 FOR THAT BEETLE
-2.1703 FOR THAT BLACK
-1.6931 FOR THAT BLUE
-2.1703 FOR THAT BROWN
-2.1703 FOR THAT BUG
-2.1703 FOR THAT CLEANER
-2.1703 FOR THAT COMPACT
-1.8692 FOR THAT CREAM
-2.1703 FOR THAT DENTAL
-2.1703 FOR THAT DEODORANT
-1.8692 FOR THAT DETERGENT
-2.1703 FOR THAT DISINFECT
-2.1703 FOR THAT DUCK
-2.1703 FOR THAT DUSTER
-2.1703 FOR THAT EXPO
-2.1703 FOR THAT FLOSS
-2.1703 FOR THAT FRUCTIS
-2.1703 FOR THAT HAND
-2.1703 FOR THAT HEAD
-2.1703 FOR THAT HEAVY
-2.1703 FOR THAT HOLE
-1.6931 FOR THAT LADYBUG
-2.1703 FOR THAT LIGHTNING
-2.1703 FOR THAT MASTER
-1.8692 FOR THAT MAXELL
-2.1703 FOR THAT MINI
-1.8692 FOR THAT MONSTER
-1.8692 FOR THAT OUTLET
-2.1703 FOR THAT PAPER
-2.1703 FOR THAT PENCIL
-2.1703 FOR THAT PEPPER
-2.1703 FOR THAT PILLOW
-2.1703 FOR THAT PINK
-2.1703 FOR THAT PIXEL
-2.1703 FOR THAT PUNCH
-1.5682 FOR THAT RED
-2.1703 FOR THAT SALT
-1.8692 FOR THAT SHAMPOO
-2.1703 FOR THAT SHARPENER
-2.1703 FOR THAT SMALL
-2.1703 FOR THAT SPEED
-2.1703 FOR THAT SQUIRREL
-2.1703 FOR THAT STAPLER
-2.1703 FOR THAT STUFF
-2.1703 FOR THAT SWINGLINE
-2.1703 FOR THAT THING
-2.1703 FOR THAT TIDE
-2.1703 FOR THAT TINY
-2.1703 FOR THAT USB
-2.1703 FOR THAT VASELINE
-1.5682 FOR THAT WHITE
-1.5682 FOR THAT YELLOW
-1.1461 FOR THE ADVANCE
-1.4472 FOR THE BLACK
-1.4472 FOR THE BROWN
-1.4472 FOR THE CLEANER
-1.4472 FOR THE CLEANSER
-1.4472 FOR THE DIGITAL
-1.4472 FOR THE FRUCTIS
-1.4472 FOR THE HAND
-1.4472 FOR THE LADYBUG
-1.4472 FOR THE RUBBER
-1.4472 FOR THE SOLAR
-1.4472 FOR THE SQUIRREL
-1.4472 FOR THE YELLOW
-0.3010 FOR THIS LADYBUG
-0.7782 FOR THOSE BLACK
-0.7782 FOR THOSE FINGERS
-0.7782 FOR THOSE LYSOL
-0.3010 FRUCTIS IN THE
-0.3010 FRUCTIS SHAMPOO </s>
-0.6021 GET INFORMATION ABOUT
-0.6021 GET INFORMATION FOR
-1.0792 GET ME INFORMATION
-1.3802 GET ME PRICES
-1.3802 GET ME PRICING
-1.0792 GET ME REVIEWS
-0.6021 GET ME SOME
-0.3010 GET PRICES FOR
-0.3010 GET PRICING FOR
-0.6021 GET REVIEWS ABOUT
-0.6021 GET REVIEWS FOR
-0.7782 GET SOME INFORMATION
-1.0792 GET SOME PRICES
-1.0792 GET SOME PRICING
-0.7782 GET SOME REVIEWS
-0.6021 GIVE INFORMATION ABOUT
-0.6021 GIVE INFORMATION FOR
-1.0792 GIVE ME INFORMATION
-1.3802 GIVE ME PRICES
-1.3802 GIVE ME PRICING
-1.0792 GIVE ME REVIEWS
-0.6021 GIVE ME SOME
-0.3010 GIVE PRICES FOR
-0.3010 GIVE PRICING FOR
-0.6021 GIVE REVIEWS ABOUT
-0.6021 GIVE REVIEWS FOR
-0.7782 GIVE SOME INFORMATION
-1.0792 GIVE SOME PRICES
-1.0792 GIVE SOME PRICING
-0.7782 GIVE SOME REVIEWS
-0.3010 GREEN BOTTLE </s>
-0.3010 HAND LIKE PAD
-0.6021 HAND PAD </s>
-0.6021 HAND PAD OF
-0.3010 HEAD AND SHOULDERS
-0.3010 HEAVY LOCK </s>
-0.3010 HOLE PUNCH </s>
-1.0792 IN THE BLUE
-0.7782 IN THE GREEN
-0.6021 IN THE YELLOW
-2.2695 INFORMATION ABOUT THA
-0.4003 INFORMATION ABOUT THAT
-1.1234 INFORMATION ABOUT THE
-2.2695 INFORMATION ABOUT THIS
-1.7924 INFORMATION ABOUT THOSE
-2.2695 INFORMATION FOR THA
-0.4003 INFORMATION FOR THAT
-1.1234 INFORMATION FOR THE
-2.2695 INFORMATION FOR THIS
-1.7924 INFORMATION FOR THOSE
-0.3010 IS THA USB
-2.1703 IS THAT AIRPLANE
-1.8692 IS THAT BEAR
-2.1703 IS THAT BEETLE
-2.1703 IS THAT BLACK
-1.6931 IS THAT BLUE
-2.1703 IS THAT BROWN
-2.1703 IS THAT BUG
-2.1703 IS THAT CLEANER
-2.1703 IS THAT COMPACT
-1.8692 IS THAT CREAM
-2.1703 IS THAT DENTAL
-2.1703 IS THAT DEODORANT
-1.8692 IS THAT DETERGENT
-2.1703 IS THAT DISINFECT
-2.1703 IS THAT DUCK
-2.1703 IS THAT DUSTER
-2.1703 IS THAT EXPO
-2.1703 IS THAT FLOSS
-2.1703 IS THAT FRUCTIS
-2.1703 IS THAT HAND
-2.1703 IS THAT HEAD
-2.1703 IS THAT HEAVY
-2.1703 IS THAT HOLE
-1.6931 IS THAT LADYBUG
-2.1703 IS THAT LIGHTNING
-2.1703 IS THAT MASTER
-1.8692 IS THAT MAXELL
-2.1703 IS THAT MINI
-1.8692 IS THAT MONSTER
-1.8692 IS THAT OUTLET
-2.1703 IS THAT PAPER
-2.1703 IS THAT PENCIL
-2.1703 IS THAT PEPPER
-2.1703 IS THAT PILLOW
-2.1703 IS THAT PINK
-2.1703 IS THAT PIXEL
-2.1703 IS THAT PUNCH
-1.5682 IS THAT RED
-2.1703 IS THAT SALT
-1.8692 IS THAT SHAMPOO
-2.1703 IS THAT SHARPENER
-2.1703 IS THAT SMALL
-2.1703 IS THAT SPEED
-2.1703 IS THAT SQUIRREL
-2.1703 IS THAT STAPLER
-2.1703 IS THAT STUFF
-2.1703 IS THAT SWINGLINE
-2.1703 IS THAT THING
-2.1703 IS THAT TIDE
-2.1703 IS THAT TINY
-2.1703 IS THAT USB
-2.1703 IS THAT VASELINE
-1.5682 IS THAT WHITE
-1.5682 IS THAT YELLOW
-1.1461 IS THE ADVANCE
-1.4472 IS THE BLACK
-1.4472 IS THE BROWN
-1.4472 IS THE CLEANER
-1.4472 IS THE CLEANSER
-1.4472 IS THE DIGITAL
-1.4472 IS THE FRUCTIS
-1.4472 IS THE HAND
-1.4472 IS THE LADYBUG
-1.4472 IS THE RUBBER
-1.4472 IS THE SOLAR
-1.4472 IS THE SQUIRREL
-1.4472 IS THE YELLOW
-0.3010 IS THIS LADYBUG
-0.7782 IS THOSE BLACK
-0.7782 IS THOSE FINGERS
-0.7782 IS THOSE LYSOL
-0.3010 KEYCHAIN </s> </s>
-0.3010 KITCHEN TIMER </s>
-0.3010 LADYBUG </s> </s>
-0.3010 LADYBUG KEYCHAIN </s>
-0.3010 LADYBUG KITCHEN TIMER
-0.3010 LADYBUG LIGHT </s>
-0.3010 LADYBUG TIMER </s>
-0.3010 LIGHT </s> </s>
-0.3010 LIGHTNING BOLT OUTLET
-0.3010 LIKE PAD </s>
-0.3010 LIQUID </s> </s>
-0.3010 LOCK </s> </s>
-0.3010 LYSOL DISINFECTANT WIPES
-0.3010 MASTER LOCK </s>
-0.3010 MAXELL BLAST AWAY
-0.3010 MAXELL DUSTER </s>
-0.3010 MAXELL LOCK </s>
-2.2695 ME ABOUT THA
-0.4003 ME ABOUT THAT
-1.1234 ME ABOUT THE
-2.2695 ME ABOUT THIS
-1.7924 ME ABOUT THOSE
-0.6021 ME INFORMATION ABOUT
-0.6021 ME INFORMATION FOR
-0.3010 ME MORE ABOUT
-0.3010 ME PRICES FOR
-0.3010 ME PRICING FOR
-0.6021 ME REVIEWS ABOUT
-0.6021 ME REVIEWS FOR
-0.7782 ME SOME INFORMATION
-1.0792 ME SOME PRICES
-1.0792 ME SOME PRICING
-0.7782 ME SOME REVIEWS
-0.3010 MINI FAN </s>
-0.3010 MONSTER </s> </s>
-0.3010 MONSTER DENTAL FLOSS
-2.2695 MORE ABOUT THA
-0.4003 MORE ABOUT THAT
-1.1234 MORE ABOUT THE
-2.2695 MORE ABOUT THIS
-1.7924 MORE ABOUT THOSE
-0.3010 OF PAPER </s>
-0.3010 OUTLET </s> </s>
-0.3010 OUTLET SPLITTER </s>
-0.3010 PAD </s> </s>
-0.3010 PAD OF PAPER
-0.3010 PAPER </s> </s>
-0.3010 PAPER PUNCH </s>
-0.3010 PENCIL SHARPENER </s>
-0.3010 PEPPER CONTAINER </s>
-0.3010 PEPPER SHAKERS </s>
-0.3010 PILLOW </s> </s>
-0.3010 PINK PENCIL SHARPENER
-0.3010 PIXEL PAD </s>
-1.3802 PLEASE FIND INFORMATION
-0.6021 PLEASE FIND ME
-1.6812 PLEASE FIND PRICES
-1.6812 PLEASE FIND PRICING
-1.3802 PLEASE FIND REVIEWS
-0.9031 PLEASE FIND SOME
-1.3802 PLEASE GET INFORMATION
-0.6021 PLEASE GET ME
-1.6812 PLEASE GET PRICES
-1.6812 PLEASE GET PRICING
-1.3802 PLEASE GET REVIEWS
-0.9031 PLEASE GET SOME
-1.5563 PLEASE GIVE INFORMATION
-0.4771 PLEASE GIVE ME
-1.8573 PLEASE GIVE PRICES
-1.8573 PLEASE GIVE PRICING
-1.5563 PLEASE GIVE REVIEWS
-1.0792 PLEASE GIVE SOME
-1.5563 PLEASE SHOW INFORMATION
-0.4771 PLEASE SHOW ME
-1.8573 PLEASE SHOW PRICES
-1.8573 PLEASE SHOW PRICING
-1.5563 PLEASE SHOW REVIEWS
-1.0792 PLEASE SHOW SOME
-0.3010 PLEASE TELL ME
-0.3010 POWER OUTLET </s>
-2.2695 PRICES FOR THA
-0.4003 PRICES FOR THAT
-1.1234 PRICES FOR THE
-2.2695 PRICES FOR THIS
-1.7924 PRICES FOR THOSE
-2.2695 PRICING FOR THA
-0.4003 PRICING FOR THAT
-1.1234 PRICING FOR THE
-2.2695 PRICING FOR THIS
-1.7924 PRICING FOR THOSE
-0.3010 PUNCH </s> </s>
-0.3010 RED BEETLE </s>
-0.3010 RED LADYBUG </s>
-0.3010 RED LOCK </s>
-0.3010 RED TIDE DETERGENT
-2.2695 REVIEWS ABOUT THA
-0.4003 REVIEWS ABOUT THAT
-1.1234 REVIEWS ABOUT THE
-2.2695 REVIEWS ABOUT THIS
-1.7924 REVIEWS ABOUT THOSE
-2.2695 REVIEWS FOR THA
-0.4003 REVIEWS FOR THAT
-1.1234 REVIEWS FOR THE
-2.2695 REVIEWS FOR THIS
-1.7924 REVIEWS FOR THOSE
-0.3010 RUBBER DUCKY TIMER
-0.3010 SALT AND PEPPER
-0.3010 SHAKERS </s> </s>
-0.3010 SHAMPOO </s> </s>
-0.3010 SHAMPOO IN THE
-0.3010 SHARPENER </s> </s>
-0.3010 SHOULDERS SHAMPOO </s>
-0.6021 SHOW INFORMATION ABOUT
-0.6021 SHOW INFORMATION FOR
-1.0792 SHOW ME INFORMATION
-1.3802 SHOW ME PRICES
-1.3802 SHOW ME PRICING
-1.0792 SHOW ME REVIEWS
-0.6021 SHOW ME SOME
-0.3010 SHOW PRICES FOR
-0.3010 SHOW PRICING FOR
-0.6021 SHOW REVIEWS ABOUT
-0.6021 SHOW REVIEWS FOR
-0.7782 SHOW SOME INFORMATION
-1.0792 SHOW SOME PRICES
-1.0792 SHOW SOME PRICING
-0.7782 SHOW SOME REVIEWS
-0.3010 SMALL FAN </s>
-0.3010 SOLAR LADYBUG KEYCHAIN
-0.6021 SOME INFORMATION ABOUT
-0.6021 SOME INFORMATION FOR
-0.3010 SOME PRICES FOR
-0.3010 SOME PRICING FOR
-0.6021 SOME REVIEWS ABOUT
-0.6021 SOME REVIEWS FOR
-0.3010 SPEED STICK DEODORANT
-0.3010 SPLITTER </s> </s>
-0.3010 SQUIRREL </s> </s>
-0.3010 SQUIRREL SHARPENER </s>
-0.3010 STAPLER </s> </s>
-0.3010 STICK DEODORANT </s>
-0.3010 STUFF IN THE
-0.3010 SWINGLINE STAPLER </s>
-0.7782 TELL ME ABOUT
-0.4771 TELL ME MORE
-0.3010 THA USB AIRPLANE
-0.3010 THAT AIRPLANE FAN
-0.6021 THAT BEAR </s>
-0.6021 THAT BEAR PILLOW
-0.3010 THAT BEETLE KITCHEN
-0.3010 THAT BLACK LOCK
-0.7782 THAT BLUE AND
-0.7782 THAT BLUE MINI
-0.7782 THAT BLUE MONSTER
-0.3010 THAT BROWN BEAR
-0.3010 THAT BUG LIGHT
-0.3010 THAT CLEANER IN
-0.3010 THAT COMPACT STAPLER
-0.6021 THAT CREAM </s>
-0.6021 THAT CREAM IN
-0.3010 THAT DENTAL FLOSS
-0.3010 THAT DEODORANT </s>
-0.6021 THAT DETERGENT </s>
-0.6021 THAT DETERGENT BOTTLE
-0.3010 THAT DISINFECT WIPES
-0.3010 THAT DUCK CLOCK
-0.3010 THAT DUSTER </s>
-0.3010 THAT EXPO CLEANER
-0.3010 THAT FLOSS </s>
-0.3010 THAT FRUCTIS IN
-0.3010 THAT HAND PAD
-0.3010 THAT HEAD AND
-0.3010 THAT HEAVY LOCK
-0.3010 THAT HOLE PUNCH
-0.7782 THAT LADYBUG KITCHEN
-0.7782 THAT LADYBUG LIGHT
-0.7782 THAT LADYBUG TIMER
-0.3010 THAT LIGHTNING BOLT
-0.3010 THAT MASTER LOCK
-0.6021 THAT MAXELL BLAST
-0.6021 THAT MAXELL DUSTER
-0.3010 THAT MINI FAN
-0.6021 THAT MONSTER </s>
-0.6021 THAT MONSTER DENTAL
-0.3010 THAT OUTLET </s>
-0.3010 THAT PAPER PUNCH
-0.3010 THAT PENCIL SHARPENER
-0.3010 THAT PEPPER CONTAINER
-0.3010 THAT PILLOW </s>
-0.3010 THAT PINK PENCIL
-0.3010 THAT PIXEL PAD
-0.3010 THAT PUNCH </s>
-0.9031 THAT RED BEETLE
-0.9031 THAT RED LADYBUG
-0.9031 THAT RED LOCK
-0.9031 THAT RED TIDE
-0.3010 THAT SALT AND
-0.6021 THAT SHAMPOO </s>
-0.6021 THAT SHAMPOO IN
-0.3010 THAT SHARPENER </s>
-0.3010 THAT SMALL FAN
-0.3010 THAT SPEED STICK
-0.3010 THAT SQUIRREL SHARPENER
-0.3010 THAT STAPLER </s>
-0.3010 THAT STUFF IN
-0.3010 THAT SWINGLINE STAPLER
-0.3010 THAT THING WITH
-0.3010 THAT TIDE DETERGENT
-0.3010 THAT TINY FAN
-0.3010 THAT USB FAN
-0.3010 THAT VASELINE </s>
-0.9031 THAT WHITE HAND
-0.6021 THAT WHITE OUTLET
-0.9031 THAT WHITE POWER
-0.9031 THAT YELLOW DISINFECTANT
-0.6021 THAT YELLOW DUCK
-0.9031 THAT YELLOW TUBE
-0.6021 THE ADVANCE CLOCK
-0.6021 THE ADVANCE DIGITAL
-0.6021 THE BLACK AND
-0.6021 THE BLACK MAXELL
-0.3010 THE BLUE AND
-0.3010 THE BROWN BEAR
-0.3010 THE CLEANER </s>
-0.3010 THE CLEANSER </s>
-0.3010 THE DIGITAL CLOCK
-0.3010 THE FRUCTIS SHAMPOO
-0.3010 THE GREEN BOTTLE
-0.3010 THE HAND PAD
-0.3010 THE LADYBUG KEYCHAIN
-0.3010 THE RUBBER DUCKY
-0.3010 THE SOLAR LADYBUG
-0.3010 THE SQUIRREL </s>
-0.9031 THE YELLOW BOTTLE
-0.4260 THE YELLOW TUBE
-0.3010 THING WITH THE
-0.3010 THIS LADYBUG LIGHT
-0.3010 THOSE BLACK AND
-0.3010 THOSE FINGERS </s>
-0.3010 THOSE LYSOL DISINFECTANT
-0.6021 TIDE DETERGENT </s>
-0.6021 TIDE DETERGENT LIQUID
-0.3010 TIMER </s> </s>
-0.3010 TINY FAN </s>
-0.3010 TUBE </s> </s>
-0.3010 USB AIRPLANE FAN
-0.3010 USB FAN </s>
-0.3010 VASELINE </s> </s>
-0.3010 WHAT CAN YOU
-2.2695 WHAT IS THA
-0.4003 WHAT IS THAT
-1.1234 WHAT IS THE
-2.2695 WHAT IS THIS
-1.7924 WHAT IS THOSE
-0.3010 WHITE BOTTLE </s>
-0.3010 WHITE FACES </s>
-0.3010 WHITE HAND LIKE
-0.6021 WHITE OUTLET </s>
-0.6021 WHITE OUTLET SPLITTER
-0.3010 WHITE POWER OUTLET
-0.3010 WIPES </s> </s>
-0.3010 WIPES IN THE
-0.3010 WITH THE BLACK
-0.3010 YELLOW BOTTLE </s>
-0.3010 YELLOW DISINFECTANT WIPES
-0.6021 YELLOW DUCK </s>
-0.6021 YELLOW DUCK TIMER
-0.3010 YELLOW TUBE </s>
-1.3802 YOU FIND INFORMATION
-0.6021 YOU FIND ME
-1.6812 YOU FIND PRICES
-1.6812 YOU FIND PRICING
-1.3802 YOU FIND REVIEWS
-0.9031 YOU FIND SOME
-1.3802 YOU GET INFORMATION
-0.6021 YOU GET ME
-1.6812 YOU GET PRICES
-1.6812 YOU GET PRICING
-1.3802 YOU GET REVIEWS
-0.9031 YOU GET SOME
-1.3802 YOU GIVE INFORMATION
-0.6021 YOU GIVE ME
-1.6812 YOU GIVE PRICES
-1.6812 YOU GIVE PRICING
-1.3802 YOU GIVE REVIEWS
-0.9031 YOU GIVE SOME
-0.9076 YOU PLEASE FIND
-0.9076 YOU PLEASE GET
-0.9076 YOU PLEASE GIVE
-0.9076 YOU PLEASE SHOW
-2.2878 YOU PLEASE TELL
-1.3802 YOU SHOW INFORMATION
-0.6021 YOU SHOW ME
-1.6812 YOU SHOW PRICES
-1.6812 YOU SHOW PRICING
-1.3802 YOU SHOW REVIEWS
-0.9031 YOU SHOW SOME
-0.3010 YOU TELL ME

\end\
