Language model created by QuickLM on Thu Jul 18 03:46:50 EDT 2013
Copyright (c) 1996-2010 Carnegie Mellon University and Alexander I. Rudnicky

The model is in standard ARPA format, designed by Doug Paul while he was at MITRE.

The code that was used to produce this language model is available in Open Source.
Please visit http://www.speech.cs.cmu.edu/tools/ for more information

The (fixed) discount mass is 0.5. The backoffs are computed using the ratio method.
This model based on a corpus of 27272 sentences and 139 words

\data\
ngram 1=139
ngram 2=336
ngram 3=733

\1-grams:
-1.0952 </s> -0.2647
-1.0952 <s> -0.2355
-2.0374 ABOUT -0.2788
-3.2386 ADVANCE -0.3003
-3.2386 AIRPLANE -0.3002
-2.7615 AND -0.2996
-3.5397 AWAY -0.3007
-2.9376 BEAR -0.2643
-2.6670 BEARD -0.2647
-3.2386 BEETLE -0.2644
-2.9376 BLACK -0.2993
-3.5397 BLAST -0.3009
-2.9376 BLUE -0.2996
-3.5397 BOLT -0.3003
-2.7615 BOTTLE -0.2647
-3.2386 BROWN -0.3005
-3.5397 BUG -0.2993
-1.8722 CAN -0.2952
-2.9580 CHICK -0.2951
-3.0625 CLEANER -0.2638
-3.5397 CLEANSER -0.2647
-2.9376 CLOCK -0.2647
-3.5397 COMPACT -0.3007
-3.5397 CONTAINER -0.2647
-3.2386 CREAM -0.2638
-2.5223 DARK -0.2984
-3.2386 DENTAL -0.3007
-3.2386 DEODORANT -0.2647
-2.9376 DETERGENT -0.2637
-2.1932 DID -0.2952
-3.2386 DIGITAL -0.3005
-3.5397 DISINFECT -0.3007
-3.2386 DISINFECTANT -0.3007
-3.0625 DUCK -0.2634
-3.5397 DUCKY -0.3004
-3.0625 DUSTER -0.2647
-3.5397 EXPO -0.3007
-3.2386 FACES -0.2647
-2.6946 FAN -0.2647
-2.1822 FIND -0.2774
-3.5397 FINGERS -0.2647
-3.0625 FLOSS -0.2647
-1.7562 FOR -0.2788
-3.2386 FRUCTIS -0.2998
-2.8533 GENTLEMAN -0.2951
-2.1822 GET -0.2774
-2.1822 GIVE -0.2774
-2.5223 GLASSES -0.2647
-3.2386 GREEN -0.3003
-2.8233 GUY -0.2951
-2.2213 HAIR -0.2647
-3.0625 HAND -0.3004
-2.1606 HAVE -0.2952
-2.8233 HE -0.2951
-3.5397 HEAD -0.3003
-3.5397 HEAVY -0.3004
-2.8855 HER -0.2951
-2.8233 HIM -0.2951
-3.5397 HOLE -0.3007
-1.8756 I -0.2952
-2.7615 IN -0.2925
-2.0573 INFORMATION -0.2893
-3.8634 IS -0.2788
-3.2386 KEYCHAIN -0.2647
-3.2386 KITCHEN -0.3004
-2.9202 LADY -0.2951
-2.6946 LADYBUG -0.2616
-2.4123 LIGHT -0.2618
-3.5397 LIGHTNING -0.3009
-3.5397 LIKE -0.3005
-3.5397 LIQUID -0.2647
-2.8407 LOCK -0.2647
-3.5397 LYSOL -0.3008
-2.8233 MAN -0.2951
-3.5397 MASTER -0.3004
-3.0625 MAXELL -0.2999
-1.8678 ME -0.2793
-2.1932 MEET -0.2857
-2.3560 MET -0.2857
-3.2386 MINI -0.3002
-3.0625 MONSTER -0.2644
-3.5624 MORE -0.2970
-2.6670 MUSTACHE -0.2647
-3.5397 OF -0.3008
-2.7615 OUTLET -0.2645
-2.9376 PAD -0.2645
-3.2386 PAPER -0.2643
-3.2386 PENCIL -0.3005
-3.2386 PEPPER -0.3008
-3.0625 PILLOW -0.2647
-3.5397 PINK -0.3008
-3.5397 PIXEL -0.3005
-3.5397 POWER -0.3003
-2.3583 PRICES -0.2933
-2.3583 PRICING -0.2933
-3.0625 PUNCH -0.2647
-2.9376 RED -0.2990
-2.0573 REVIEWS -0.2893
-3.5397 RUBBER -0.3009
-3.5397 SALT -0.3003
-2.6015 SEEN -0.2857
-3.5397 SHAKERS -0.2647
-2.9376 SHAMPOO -0.2638
-2.9376 SHARPENER -0.2647
-2.9202 SHE -0.2951
-3.5397 SHOULDERS -0.3005
-2.1822 SHOW -0.2774
-3.5397 SMALL -0.3002
-3.5397 SOLAR -0.3002
-1.8812 SOME -0.2895
-3.5397 SPEED -0.3009
-3.5397 SPLITTER -0.2647
-3.2386 SQUIRREL -0.2641
-3.0625 STAPLER -0.2647
-3.5397 STICK -0.3008
-3.5397 STUFF -0.3003
-3.5397 SWINGLINE -0.3007
-3.3863 TELL -0.2951
-3.5397 THA -0.3008
-1.5351 THAT -0.2804
-1.7127 THE -0.2892
-3.5397 THING -0.2951
-3.5397 THIS -0.3002
-3.0625 THOSE -0.3003
-3.2386 TIDE -0.3005
-2.8407 TIMER -0.2647
-3.5397 TINY -0.3002
-2.9376 TUBE -0.2647
-3.2386 USB -0.2999
-3.5397 VASELINE -0.2647
-3.5624 WHAT -0.2951
-2.6984 WHEN -0.2982
-2.3973 WHERE -0.2952
-2.6366 WHITE -0.2988
-3.0625 WIPES -0.2638
-1.8662 WITH -0.2925
-2.9580 WOMAN -0.2951
-2.6366 YELLOW -0.2991
-1.8722 YOU -0.2893

\2-grams:
-0.6021 </s> </s> -0.3010
-0.6021 <s> <s> -0.1761
-1.0825 <s> CAN 0.0000
-1.8073 <s> DID 0.0000
-1.6891 <s> FIND 0.0000
-1.6891 <s> GET 0.0000
-1.6891 <s> GIVE 0.0000
-1.5240 <s> HAVE 0.0000
-1.6891 <s> SHOW 0.0000
-3.0693 <s> TELL 0.0000
-2.7683 <s> WHAT 0.0000
-1.9042 <s> WHEN 0.0000
-1.6032 <s> WHERE 0.0000
-2.2695 ABOUT THA 0.0000
-0.4003 ABOUT THAT -0.1030
-1.1234 ABOUT THE -0.2385
-2.2695 ABOUT THIS 0.0000
-1.7924 ABOUT THOSE 0.0000
-0.6021 ADVANCE CLOCK 0.0000
-0.6021 ADVANCE DIGITAL 0.0000
-0.3010 AIRPLANE FAN 0.0000
-1.0792 AND PEPPER -0.1761
-1.0792 AND SHOULDERS 0.0000
-0.4771 AND WHITE -0.1761
-0.3010 AWAY DUSTER 0.0000
-0.6021 BEAR </s> -0.1761
-0.6021 BEAR PILLOW 0.0000
-0.3010 BEARD </s> -0.1761
-0.6021 BEETLE </s> -0.1761
-0.6021 BEETLE KITCHEN 0.0000
-0.6021 BLACK AND -0.1249
-0.9031 BLACK LOCK 0.0000
-0.9031 BLACK MAXELL -0.2218
-0.3010 BLAST AWAY 0.0000
-0.6021 BLUE AND -0.1249
-0.9031 BLUE MINI 0.0000
-0.9031 BLUE MONSTER -0.1249
-0.3010 BOLT OUTLET -0.0669
-0.3010 BOTTLE </s> -0.1761
-0.3010 BROWN BEAR 0.0000
-0.3010 BUG LIGHT -0.2495
-0.3010 CAN YOU 0.0000
-0.3010 CHICK WITH 0.0000
-0.4771 CLEANER </s> -0.1761
-0.7782 CLEANER IN 0.0000
-0.3010 CLEANSER </s> -0.1761
-0.3010 CLOCK </s> -0.1761
-0.3010 COMPACT STAPLER 0.0000
-0.3010 CONTAINER </s> -0.1761
-0.6021 CREAM </s> -0.1761
-0.6021 CREAM IN 0.0000
-0.3010 DARK HAIR 0.0000
-0.3010 DENTAL FLOSS 0.0000
-0.3010 DEODORANT </s> -0.1761
-0.6021 DETERGENT </s> -0.1761
-0.9031 DETERGENT BOTTLE 0.0000
-0.9031 DETERGENT LIQUID 0.0000
-0.3010 DID I -0.1815
-0.3010 DIGITAL CLOCK 0.0000
-0.3010 DISINFECT WIPES -0.2218
-0.3010 DISINFECTANT WIPES -0.1249
-0.7782 DUCK </s> -0.1761
-0.7782 DUCK CLOCK 0.0000
-0.7782 DUCK TIMER 0.0000
-0.3010 DUCKY TIMER 0.0000
-0.3010 DUSTER </s> -0.1761
-0.3010 EXPO CLEANER -0.1249
-0.3010 FACES </s> -0.1761
-0.3010 FAN </s> -0.1761
-1.3802 FIND INFORMATION 0.0000
-0.6021 FIND ME -0.0130
-1.6812 FIND PRICES 0.0000
-1.6812 FIND PRICING 0.0000
-1.3802 FIND REVIEWS 0.0000
-0.9031 FIND SOME 0.0000
-0.3010 FINGERS </s> -0.1761
-0.3010 FLOSS </s> -0.1761
-2.2695 FOR THA 0.0000
-0.4003 FOR THAT -0.1030
-1.1234 FOR THE -0.2385
-2.2695 FOR THIS 0.0000
-1.7924 FOR THOSE 0.0000
-0.6021 FRUCTIS IN 0.0000
-0.6021 FRUCTIS SHAMPOO -0.0969
-0.3010 GENTLEMAN WITH 0.0000
-1.3802 GET INFORMATION 0.0000
-0.6021 GET ME -0.0130
-1.6812 GET PRICES 0.0000
-1.6812 GET PRICING 0.0000
-1.3802 GET REVIEWS 0.0000
-0.9031 GET SOME 0.0000
-1.3802 GIVE INFORMATION 0.0000
-0.6021 GIVE ME -0.0130
-1.6812 GIVE PRICES 0.0000
-1.6812 GIVE PRICING 0.0000
-1.3802 GIVE REVIEWS 0.0000
-0.9031 GIVE SOME 0.0000
-0.3010 GLASSES </s> -0.1761
-0.3010 GREEN BOTTLE 0.0000
-0.3010 GUY WITH 0.0000
-0.3010 HAIR </s> -0.1761
-0.7782 HAND LIKE 0.0000
-0.4771 HAND PAD 0.0000
-0.3010 HAVE I -0.1706
-0.3010 HE WITH 0.0000
-0.3010 HEAD AND -0.2632
-0.3010 HEAVY LOCK 0.0000
-0.3010 HER WITH 0.0000
-0.3010 HIM WITH 0.0000
-0.3010 HOLE PUNCH 0.0000
-0.6187 I MEET 0.0000
-0.7814 I MET 0.0000
-1.0269 I SEEN 0.0000
-0.3010 IN THE -0.2778
-0.6021 INFORMATION ABOUT 0.0000
-0.6021 INFORMATION FOR 0.0000
-2.2695 IS THA 0.0000
-0.4003 IS THAT -0.1030
-1.1234 IS THE -0.2385
-2.2695 IS THIS 0.0000
-1.7924 IS THOSE 0.0000
-0.3010 KEYCHAIN </s> -0.1761
-0.3010 KITCHEN TIMER 0.0000
-0.3010 LADY WITH 0.0000
-1.1461 LADYBUG </s> -0.1761
-0.8451 LADYBUG KEYCHAIN 0.0000
-1.1461 LADYBUG KITCHEN 0.0000
-0.8451 LADYBUG LIGHT -0.2495
-1.1461 LADYBUG TIMER 0.0000
-0.9513 LIGHT </s> -0.1761
-0.4110 LIGHT HAIR 0.0000
-0.3010 LIGHTNING BOLT 0.0000
-0.3010 LIKE PAD -0.0969
-0.3010 LIQUID </s> -0.1761
-0.3010 LOCK </s> -0.1761
-0.3010 LYSOL DISINFECTANT 0.0000
-0.3010 MAN WITH 0.0000
-0.3010 MASTER LOCK 0.0000
-0.7782 MAXELL BLAST 0.0000
-0.7782 MAXELL DUSTER 0.0000
-0.7782 MAXELL LOCK 0.0000
-2.2967 ME ABOUT 0.0000
-1.0925 ME INFORMATION 0.0000
-1.9956 ME MORE 0.0000
-1.3936 ME PRICES 0.0000
-1.3936 ME PRICING 0.0000
-1.0925 ME REVIEWS 0.0000
-0.6154 ME SOME 0.0000
-1.2321 MEET HE 0.0000
-1.3668 MEET HER 0.0000
-1.2321 MEET HIM 0.0000
-1.3668 MEET SHE 0.0000
-0.5274 MEET THAT -0.2386
-1.2455 MET HE 0.0000
-1.2455 MET HER 0.0000
-1.2455 MET HIM 0.0000
-1.3424 MET SHE 0.0000
-0.5465 MET THAT -0.2386
-0.3010 MINI FAN 0.0000
-0.4771 MONSTER </s> -0.1761
-0.7782 MONSTER DENTAL 0.0000
-0.3010 MORE ABOUT 0.0000
-0.3010 MUSTACHE </s> -0.1761
-0.3010 OF PAPER -0.1761
-0.3802 OUTLET </s> -0.1761
-1.0792 OUTLET SPLITTER 0.0000
-0.4260 PAD </s> -0.1761
-0.9031 PAD OF 0.0000
-0.6021 PAPER </s> -0.1761
-0.6021 PAPER PUNCH 0.0000
-0.3010 PENCIL SHARPENER 0.0000
-0.6021 PEPPER CONTAINER 0.0000
-0.6021 PEPPER SHAKERS 0.0000
-0.3010 PILLOW </s> -0.1761
-0.3010 PINK PENCIL 0.0000
-0.3010 PIXEL PAD -0.0969
-0.3010 POWER OUTLET -0.0669
-0.3010 PRICES FOR 0.0000
-0.3010 PRICING FOR 0.0000
-0.3010 PUNCH </s> -0.1761
-0.9031 RED BEETLE -0.1761
-0.9031 RED LADYBUG -0.2688
-0.9031 RED LOCK 0.0000
-0.9031 RED TIDE 0.0000
-0.6021 REVIEWS ABOUT 0.0000
-0.6021 REVIEWS FOR 0.0000
-0.3010 RUBBER DUCKY 0.0000
-0.3010 SALT AND -0.2632
-1.3010 SEEN HE 0.0000
-1.3010 SEEN HER 0.0000
-1.3010 SEEN HIM 0.0000
-1.3010 SEEN SHE 0.0000
-0.5229 SEEN THAT -0.2386
-0.3010 SHAKERS </s> -0.1761
-0.4260 SHAMPOO </s> -0.1761
-0.9031 SHAMPOO IN 0.0000
-0.3010 SHARPENER </s> -0.1761
-0.3010 SHE WITH 0.0000
-0.3010 SHOULDERS SHAMPOO -0.0969
-1.3802 SHOW INFORMATION 0.0000
-0.6021 SHOW ME -0.0130
-1.6812 SHOW PRICES 0.0000
-1.6812 SHOW PRICING 0.0000
-1.3802 SHOW REVIEWS 0.0000
-0.9031 SHOW SOME 0.0000
-0.3010 SMALL FAN 0.0000
-0.3010 SOLAR LADYBUG -0.2341
-0.7782 SOME INFORMATION 0.0000
-1.0792 SOME PRICES 0.0000
-1.0792 SOME PRICING 0.0000
-0.7782 SOME REVIEWS 0.0000
-0.3010 SPEED STICK 0.0000
-0.3010 SPLITTER </s> -0.1761
-0.6021 SQUIRREL </s> -0.1761
-0.6021 SQUIRREL SHARPENER 0.0000
-0.3010 STAPLER </s> -0.1761
-0.3010 STICK DEODORANT 0.0000
-0.3010 STUFF IN 0.0000
-0.3010 SWINGLINE STAPLER 0.0000
-0.3010 TELL ME -0.2944
-0.3010 THA USB -0.1761
-2.3056 THAT AIRPLANE 0.0000
-2.0046 THAT BEAR 0.0000
-2.3056 THAT BEETLE -0.1761
-2.3056 THAT BLACK -0.2430
-1.8285 THAT BLUE 0.0000
-2.3056 THAT BROWN 0.0000
-2.3056 THAT BUG 0.0000
-1.7240 THAT CHICK 0.0000
-2.3056 THAT CLEANER -0.2218
-2.3056 THAT COMPACT 0.0000
-2.0046 THAT CREAM 0.0000
-2.3056 THAT DENTAL 0.0000
-2.3056 THAT DEODORANT 0.0000
-2.0046 THAT DETERGENT -0.0969
-2.3056 THAT DISINFECT 0.0000
-2.3056 THAT DUCK -0.2218
-2.3056 THAT DUSTER 0.0000
-2.3056 THAT EXPO 0.0000
-2.3056 THAT FLOSS 0.0000
-2.3056 THAT FRUCTIS -0.1761
-1.6192 THAT GENTLEMAN 0.0000
-1.5893 THAT GUY 0.0000
-2.3056 THAT HAND -0.1249
-2.3056 THAT HEAD 0.0000
-2.3056 THAT HEAVY 0.0000
-2.3056 THAT HOLE 0.0000
-1.6862 THAT LADY 0.0000
-1.8285 THAT LADYBUG -0.1549
-2.3056 THAT LIGHTNING 0.0000
-1.5893 THAT MAN 0.0000
-2.3056 THAT MASTER 0.0000
-2.0046 THAT MAXELL -0.1249
-2.3056 THAT MINI 0.0000
-2.0046 THAT MONSTER 0.0000
-2.0046 THAT OUTLET -0.0669
-2.3056 THAT PAPER -0.1761
-2.3056 THAT PENCIL 0.0000
-2.3056 THAT PEPPER -0.1761
-2.3056 THAT PILLOW 0.0000
-2.3056 THAT PINK 0.0000
-2.3056 THAT PIXEL 0.0000
-2.3056 THAT PUNCH 0.0000
-1.7036 THAT RED 0.0000
-2.3056 THAT SALT 0.0000
-2.0046 THAT SHAMPOO 0.0000
-2.3056 THAT SHARPENER 0.0000
-2.3056 THAT SMALL 0.0000
-2.3056 THAT SPEED 0.0000
-2.3056 THAT SQUIRREL -0.1761
-2.3056 THAT STAPLER 0.0000
-2.3056 THAT STUFF 0.0000
-2.3056 THAT SWINGLINE 0.0000
-2.3056 THAT THING 0.0000
-2.3056 THAT TIDE 0.0000
-2.3056 THAT TINY 0.0000
-2.3056 THAT USB -0.1761
-2.3056 THAT VASELINE 0.0000
-1.7036 THAT WHITE -0.1761
-1.7240 THAT WOMAN 0.0000
-1.7036 THAT YELLOW -0.0512
-1.8270 THE ADVANCE 0.0000
-1.2553 THE BEARD 0.0000
-1.8270 THE BLACK -0.0969
-2.1280 THE BLUE -0.1761
-2.1280 THE BROWN 0.0000
-2.1280 THE CLEANER -0.1249
-2.1280 THE CLEANSER 0.0000
-1.1107 THE DARK 0.0000
-2.1280 THE DIGITAL 0.0000
-2.1280 THE FRUCTIS -0.1761
-1.1107 THE GLASSES 0.0000
-1.8270 THE GREEN 0.0000
-2.1280 THE HAND -0.1249
-2.1280 THE LADYBUG -0.2341
-1.1107 THE LIGHT -0.0877
-1.2553 THE MUSTACHE 0.0000
-2.1280 THE RUBBER 0.0000
-2.1280 THE SOLAR 0.0000
-2.1280 THE SQUIRREL -0.1761
-1.5260 THE YELLOW -0.1383
-0.3010 THING WITH 0.0000
-0.3010 THIS LADYBUG -0.2341
-0.7782 THOSE BLACK -0.1761
-0.7782 THOSE FINGERS 0.0000
-0.7782 THOSE LYSOL 0.0000
-0.3010 TIDE DETERGENT -0.0969
-0.3010 TIMER </s> -0.1761
-0.3010 TINY FAN 0.0000
-0.3010 TUBE </s> -0.1761
-0.6021 USB AIRPLANE 0.0000
-0.6021 USB FAN 0.0000
-0.3010 VASELINE </s> -0.1761
-0.6021 WHAT CAN 0.0000
-0.6021 WHAT IS 0.0000
-0.3010 WHEN DID 0.0000
-0.6243 WHERE DID 0.0000
-0.5809 WHERE HAVE 0.0000
-0.9031 WHITE BOTTLE 0.0000
-0.9031 WHITE FACES 0.0000
-1.2041 WHITE HAND -0.2218
-0.9031 WHITE OUTLET 0.0000
-1.2041 WHITE POWER 0.0000
-0.4771 WIPES </s> -0.1761
-0.7782 WIPES IN 0.0000
-0.3010 WITH THE -0.1082
-0.3010 WOMAN WITH 0.0000
-1.2041 YELLOW BOTTLE 0.0000
-1.2041 YELLOW DISINFECTANT 0.0000
-0.9031 YELLOW DUCK -0.1249
-0.6021 YELLOW TUBE 0.0000
-0.9120 YOU FIND 0.0000
-0.9120 YOU GET 0.0000
-0.9120 YOU GIVE 0.0000
-0.9120 YOU SHOW 0.0000
-1.9912 YOU TELL 0.0000

\3-grams:
-0.7815 <s> <s> CAN
-1.5063 <s> <s> DID
-1.3881 <s> <s> FIND
-1.3881 <s> <s> GET
-1.3881 <s> <s> GIVE
-1.2230 <s> <s> HAVE
-1.3881 <s> <s> SHOW
-2.7683 <s> <s> TELL
-2.4672 <s> <s> WHAT
-1.6032 <s> <s> WHEN
-1.3022 <s> <s> WHERE
-0.3010 <s> CAN YOU
-0.3010 <s> DID I
-1.3802 <s> FIND INFORMATION
-0.6021 <s> FIND ME
-1.6812 <s> FIND PRICES
-1.6812 <s> FIND PRICING
-1.3802 <s> FIND REVIEWS
-0.9031 <s> FIND SOME
-1.3802 <s> GET INFORMATION
-0.6021 <s> GET ME
-1.6812 <s> GET PRICES
-1.6812 <s> GET PRICING
-1.3802 <s> GET REVIEWS
-0.9031 <s> GET SOME
-1.3802 <s> GIVE INFORMATION
-0.6021 <s> GIVE ME
-1.6812 <s> GIVE PRICES
-1.6812 <s> GIVE PRICING
-1.3802 <s> GIVE REVIEWS
-0.9031 <s> GIVE SOME
-0.3010 <s> HAVE I
-1.3802 <s> SHOW INFORMATION
-0.6021 <s> SHOW ME
-1.6812 <s> SHOW PRICES
-1.6812 <s> SHOW PRICING
-1.3802 <s> SHOW REVIEWS
-0.9031 <s> SHOW SOME
-0.3010 <s> TELL ME
-0.6021 <s> WHAT CAN
-0.6021 <s> WHAT IS
-0.3010 <s> WHEN DID
-0.6243 <s> WHERE DID
-0.5809 <s> WHERE HAVE
-0.3010 ABOUT THA USB
-2.1703 ABOUT THAT AIRPLANE
-1.8692 ABOUT THAT BEAR
-2.1703 ABOUT THAT BEETLE
-2.1703 ABOUT THAT BLACK
-1.6931 ABOUT THAT BLUE
-2.1703 ABOUT THAT BROWN
-2.1703 ABOUT THAT BUG
-2.1703 ABOUT THAT CLEANER
-2.1703 ABOUT THAT COMPACT
-1.8692 ABOUT THAT CREAM
-2.1703 ABOUT THAT DENTAL
-2.1703 ABOUT THAT DEODORANT
-1.8692 ABOUT THAT DETERGENT
-2.1703 ABOUT THAT DISINFECT
-2.1703 ABOUT THAT DUCK
-2.1703 ABOUT THAT DUSTER
-2.1703 ABOUT THAT EXPO
-2.1703 ABOUT THAT FLOSS
-2.1703 ABOUT THAT FRUCTIS
-2.1703 ABOUT THAT HAND
-2.1703 ABOUT THAT HEAD
-2.1703 ABOUT THAT HEAVY
-2.1703 ABOUT THAT HOLE
-1.6931 ABOUT THAT LADYBUG
-2.1703 ABOUT THAT LIGHTNING
-2.1703 ABOUT THAT MASTER
-1.8692 ABOUT THAT MAXELL
-2.1703 ABOUT THAT MINI
-1.8692 ABOUT THAT MONSTER
-1.8692 ABOUT THAT OUTLET
-2.1703 ABOUT THAT PAPER
-2.1703 ABOUT THAT PENCIL
-2.1703 ABOUT THAT PEPPER
-2.1703 ABOUT THAT PILLOW
-2.1703 ABOUT THAT PINK
-2.1703 ABOUT THAT PIXEL
-2.1703 ABOUT THAT PUNCH
-1.5682 ABOUT THAT RED
-2.1703 ABOUT THAT SALT
-1.8692 ABOUT THAT SHAMPOO
-2.1703 ABOUT THAT SHARPENER
-2.1703 ABOUT THAT SMALL
-2.1703 ABOUT THAT SPEED
-2.1703 ABOUT THAT SQUIRREL
-2.1703 ABOUT THAT STAPLER
-2.1703 ABOUT THAT STUFF
-2.1703 ABOUT THAT SWINGLINE
-2.1703 ABOUT THAT THING
-2.1703 ABOUT THAT TIDE
-2.1703 ABOUT THAT TINY
-2.1703 ABOUT THAT USB
-2.1703 ABOUT THAT VASELINE
-1.5682 ABOUT THAT WHITE
-1.5682 ABOUT THAT YELLOW
-1.1461 ABOUT THE ADVANCE
-1.4472 ABOUT THE BLACK
-1.4472 ABOUT THE BROWN
-1.4472 ABOUT THE CLEANER
-1.4472 ABOUT THE CLEANSER
-1.4472 ABOUT THE DIGITAL
-1.4472 ABOUT THE FRUCTIS
-1.4472 ABOUT THE HAND
-1.4472 ABOUT THE LADYBUG
-1.4472 ABOUT THE RUBBER
-1.4472 ABOUT THE SOLAR
-1.4472 ABOUT THE SQUIRREL
-1.4472 ABOUT THE YELLOW
-0.3010 ABOUT THIS LADYBUG
-0.7782 ABOUT THOSE BLACK
-0.7782 ABOUT THOSE FINGERS
-0.7782 ABOUT THOSE LYSOL
-0.3010 ADVANCE CLOCK </s>
-0.3010 ADVANCE DIGITAL CLOCK
-0.3010 AIRPLANE FAN </s>
-0.3010 AND PEPPER SHAKERS
-0.3010 AND SHOULDERS SHAMPOO
-0.6021 AND WHITE BOTTLE
-0.6021 AND WHITE FACES
-0.3010 AWAY DUSTER </s>
-0.3010 BEAR </s> </s>
-0.3010 BEAR PILLOW </s>
-0.3010 BEARD </s> </s>
-0.3010 BEETLE </s> </s>
-0.3010 BEETLE KITCHEN TIMER
-0.3010 BLACK AND WHITE
-0.3010 BLACK LOCK </s>
-0.3010 BLACK MAXELL LOCK
-0.3010 BLAST AWAY DUSTER
-0.3010 BLUE AND WHITE
-0.3010 BLUE MINI FAN
-0.3010 BLUE MONSTER </s>
-0.3010 BOLT OUTLET </s>
-0.3010 BOTTLE </s> </s>
-0.6021 BROWN BEAR </s>
-0.6021 BROWN BEAR PILLOW
-0.3010 BUG LIGHT </s>
-0.9120 CAN YOU FIND
-0.9120 CAN YOU GET
-0.9120 CAN YOU GIVE
-0.9120 CAN YOU SHOW
-1.9912 CAN YOU TELL
-0.3010 CHICK WITH THE
-0.3010 CLEANER </s> </s>
-0.3010 CLEANER IN THE
-0.3010 CLEANSER </s> </s>
-0.3010 CLOCK </s> </s>
-0.3010 COMPACT STAPLER </s>
-0.3010 CONTAINER </s> </s>
-0.3010 CREAM </s> </s>
-0.3010 CREAM IN THE
-0.3010 DARK HAIR </s>
-0.3010 DENTAL FLOSS </s>
-0.3010 DEODORANT </s> </s>
-0.3010 DETERGENT </s> </s>
-0.3010 DETERGENT BOTTLE </s>
-0.3010 DETERGENT LIQUID </s>
-0.3010 DID I MEET
-0.3010 DIGITAL CLOCK </s>
-0.3010 DISINFECT WIPES IN
-0.3010 DISINFECTANT WIPES </s>
-0.3010 DUCK </s> </s>
-0.3010 DUCK CLOCK </s>
-0.3010 DUCK TIMER </s>
-0.3010 DUCKY TIMER </s>
-0.3010 DUSTER </s> </s>
-0.3010 EXPO CLEANER </s>
-0.3010 FACES </s> </s>
-0.3010 FAN </s> </s>
-0.6021 FIND INFORMATION ABOUT
-0.6021 FIND INFORMATION FOR
-1.0792 FIND ME INFORMATION
-1.3802 FIND ME PRICES
-1.3802 FIND ME PRICING
-1.0792 FIND ME REVIEWS
-0.6021 FIND ME SOME
-0.3010 FIND PRICES FOR
-0.3010 FIND PRICING FOR
-0.6021 FIND REVIEWS ABOUT
-0.6021 FIND REVIEWS FOR
-0.7782 FIND SOME INFORMATION
-1.0792 FIND SOME PRICES
-1.0792 FIND SOME PRICING
-0.7782 FIND SOME REVIEWS
-0.3010 FINGERS </s> </s>
-0.3010 FLOSS </s> </s>
-0.3010 FOR THA USB
-2.1703 FOR THAT AIRPLANE
-1.8692 FOR THAT BEAR
-2.1703 FOR THAT BEETLE
-2.1703 FOR THAT BLACK
-1.6931 FOR THAT BLUE
-2.1703 FOR THAT BROWN
-2.1703 FOR THAT BUG
-2.1703 FOR THAT CLEANER
-2.1703 FOR THAT COMPACT
-1.8692 FOR THAT CREAM
-2.1703 FOR THAT DENTAL
-2.1703 FOR THAT DEODORANT
-1.8692 FOR THAT DETERGENT
-2.1703 FOR THAT DISINFECT
-2.1703 FOR THAT DUCK
-2.1703 FOR THAT DUSTER
-2.1703 FOR THAT EXPO
-2.1703 FOR THAT FLOSS
-2.1703 FOR THAT FRUCTIS
-2.1703 FOR THAT HAND
-2.1703 FOR THAT HEAD
-2.1703 FOR THAT HEAVY
-2.1703 FOR THAT HOLE
-1.6931 FOR THAT LADYBUG
-2.1703 FOR THAT LIGHTNING
-2.1703 FOR THAT MASTER
-1.8692 FOR THAT MAXELL
-2.1703 FOR THAT MINI
-1.8692 FOR THAT MONSTER
-1.8692 FOR THAT OUTLET
-2.1703 FOR THAT PAPER
-2.1703 FOR THAT PENCIL
-2.1703 FOR THAT PEPPER
-2.1703 FOR THAT PILLOW
-2.1703 FOR THAT PINK
-2.1703 FOR THAT PIXEL
-2.1703 FOR THAT PUNCH
-1.5682 FOR THAT RED
-2.1703 FOR THAT SALT
-1.8692 FOR THAT SHAMPOO
-2.1703 FOR THAT SHARPENER
-2.1703 FOR THAT SMALL
-2.1703 FOR THAT SPEED
-2.1703 FOR THAT SQUIRREL
-2.1703 FOR THAT STAPLER
-2.1703 FOR THAT STUFF
-2.1703 FOR THAT SWINGLINE
-2.1703 FOR THAT THING
-2.1703 FOR THAT TIDE
-2.1703 FOR THAT TINY
-2.1703 FOR THAT USB
-2.1703 FOR THAT VASELINE
-1.5682 FOR THAT WHITE
-1.5682 FOR THAT YELLOW
-1.1461 FOR THE ADVANCE
-1.4472 FOR THE BLACK
-1.4472 FOR THE BROWN
-1.4472 FOR THE CLEANER
-1.4472 FOR THE CLEANSER
-1.4472 FOR THE DIGITAL
-1.4472 FOR THE FRUCTIS
-1.4472 FOR THE HAND
-1.4472 FOR THE LADYBUG
-1.4472 FOR THE RUBBER
-1.4472 FOR THE SOLAR
-1.4472 FOR THE SQUIRREL
-1.4472 FOR THE YELLOW
-0.3010 FOR THIS LADYBUG
-0.7782 FOR THOSE BLACK
-0.7782 FOR THOSE FINGERS
-0.7782 FOR THOSE LYSOL
-0.3010 FRUCTIS IN THE
-0.3010 FRUCTIS SHAMPOO </s>
-0.3010 GENTLEMAN WITH THE
-0.6021 GET INFORMATION ABOUT
-0.6021 GET INFORMATION FOR
-1.0792 GET ME INFORMATION
-1.3802 GET ME PRICES
-1.3802 GET ME PRICING
-1.0792 GET ME REVIEWS
-0.6021 GET ME SOME
-0.3010 GET PRICES FOR
-0.3010 GET PRICING FOR
-0.6021 GET REVIEWS ABOUT
-0.6021 GET REVIEWS FOR
-0.7782 GET SOME INFORMATION
-1.0792 GET SOME PRICES
-1.0792 GET SOME PRICING
-0.7782 GET SOME REVIEWS
-0.6021 GIVE INFORMATION ABOUT
-0.6021 GIVE INFORMATION FOR
-1.0792 GIVE ME INFORMATION
-1.3802 GIVE ME PRICES
-1.3802 GIVE ME PRICING
-1.0792 GIVE ME REVIEWS
-0.6021 GIVE ME SOME
-0.3010 GIVE PRICES FOR
-0.3010 GIVE PRICING FOR
-0.6021 GIVE REVIEWS ABOUT
-0.6021 GIVE REVIEWS FOR
-0.7782 GIVE SOME INFORMATION
-1.0792 GIVE SOME PRICES
-1.0792 GIVE SOME PRICING
-0.7782 GIVE SOME REVIEWS
-0.3010 GLASSES </s> </s>
-0.3010 GREEN BOTTLE </s>
-0.3010 GUY WITH THE
-0.3010 HAIR </s> </s>
-0.3010 HAND LIKE PAD
-0.6021 HAND PAD </s>
-0.6021 HAND PAD OF
-0.4964 HAVE I MET
-0.7419 HAVE I SEEN
-0.3010 HE WITH THE
-0.3010 HEAD AND SHOULDERS
-0.3010 HEAVY LOCK </s>
-0.3010 HER WITH THE
-0.3010 HIM WITH THE
-0.3010 HOLE PUNCH </s>
-1.2321 I MEET HE
-1.3668 I MEET HER
-1.2321 I MEET HIM
-1.3668 I MEET SHE
-0.5274 I MEET THAT
-1.2455 I MET HE
-1.2455 I MET HER
-1.2455 I MET HIM
-1.3424 I MET SHE
-0.5465 I MET THAT
-1.3010 I SEEN HE
-1.3010 I SEEN HER
-1.3010 I SEEN HIM
-1.3010 I SEEN SHE
-0.5229 I SEEN THAT
-1.0792 IN THE BLUE
-0.7782 IN THE GREEN
-0.6021 IN THE YELLOW
-2.2695 INFORMATION ABOUT THA
-0.4003 INFORMATION ABOUT THAT
-1.1234 INFORMATION ABOUT THE
-2.2695 INFORMATION ABOUT THIS
-1.7924 INFORMATION ABOUT THOSE
-2.2695 INFORMATION FOR THA
-0.4003 INFORMATION FOR THAT
-1.1234 INFORMATION FOR THE
-2.2695 INFORMATION FOR THIS
-1.7924 INFORMATION FOR THOSE
-0.3010 IS THA USB
-2.1703 IS THAT AIRPLANE
-1.8692 IS THAT BEAR
-2.1703 IS THAT BEETLE
-2.1703 IS THAT BLACK
-1.6931 IS THAT BLUE
-2.1703 IS THAT BROWN
-2.1703 IS THAT BUG
-2.1703 IS THAT CLEANER
-2.1703 IS THAT COMPACT
-1.8692 IS THAT CREAM
-2.1703 IS THAT DENTAL
-2.1703 IS THAT DEODORANT
-1.8692 IS THAT DETERGENT
-2.1703 IS THAT DISINFECT
-2.1703 IS THAT DUCK
-2.1703 IS THAT DUSTER
-2.1703 IS THAT EXPO
-2.1703 IS THAT FLOSS
-2.1703 IS THAT FRUCTIS
-2.1703 IS THAT HAND
-2.1703 IS THAT HEAD
-2.1703 IS THAT HEAVY
-2.1703 IS THAT HOLE
-1.6931 IS THAT LADYBUG
-2.1703 IS THAT LIGHTNING
-2.1703 IS THAT MASTER
-1.8692 IS THAT MAXELL
-2.1703 IS THAT MINI
-1.8692 IS THAT MONSTER
-1.8692 IS THAT OUTLET
-2.1703 IS THAT PAPER
-2.1703 IS THAT PENCIL
-2.1703 IS THAT PEPPER
-2.1703 IS THAT PILLOW
-2.1703 IS THAT PINK
-2.1703 IS THAT PIXEL
-2.1703 IS THAT PUNCH
-1.5682 IS THAT RED
-2.1703 IS THAT SALT
-1.8692 IS THAT SHAMPOO
-2.1703 IS THAT SHARPENER
-2.1703 IS THAT SMALL
-2.1703 IS THAT SPEED
-2.1703 IS THAT SQUIRREL
-2.1703 IS THAT STAPLER
-2.1703 IS THAT STUFF
-2.1703 IS THAT SWINGLINE
-2.1703 IS THAT THING
-2.1703 IS THAT TIDE
-2.1703 IS THAT TINY
-2.1703 IS THAT USB
-2.1703 IS THAT VASELINE
-1.5682 IS THAT WHITE
-1.5682 IS THAT YELLOW
-1.1461 IS THE ADVANCE
-1.4472 IS THE BLACK
-1.4472 IS THE BROWN
-1.4472 IS THE CLEANER
-1.4472 IS THE CLEANSER
-1.4472 IS THE DIGITAL
-1.4472 IS THE FRUCTIS
-1.4472 IS THE HAND
-1.4472 IS THE LADYBUG
-1.4472 IS THE RUBBER
-1.4472 IS THE SOLAR
-1.4472 IS THE SQUIRREL
-1.4472 IS THE YELLOW
-0.3010 IS THIS LADYBUG
-0.7782 IS THOSE BLACK
-0.7782 IS THOSE FINGERS
-0.7782 IS THOSE LYSOL
-0.3010 KEYCHAIN </s> </s>
-0.3010 KITCHEN TIMER </s>
-0.3010 LADY WITH THE
-0.3010 LADYBUG </s> </s>
-0.3010 LADYBUG KEYCHAIN </s>
-0.3010 LADYBUG KITCHEN TIMER
-0.3010 LADYBUG LIGHT </s>
-0.3010 LADYBUG TIMER </s>
-0.3010 LIGHT </s> </s>
-0.3010 LIGHT HAIR </s>
-0.3010 LIGHTNING BOLT OUTLET
-0.3010 LIKE PAD </s>
-0.3010 LIQUID </s> </s>
-0.3010 LOCK </s> </s>
-0.3010 LYSOL DISINFECTANT WIPES
-0.3010 MAN WITH THE
-0.3010 MASTER LOCK </s>
-0.3010 MAXELL BLAST AWAY
-0.3010 MAXELL DUSTER </s>
-0.3010 MAXELL LOCK </s>
-2.2695 ME ABOUT THA
-0.4003 ME ABOUT THAT
-1.1234 ME ABOUT THE
-2.2695 ME ABOUT THIS
-1.7924 ME ABOUT THOSE
-0.6021 ME INFORMATION ABOUT
-0.6021 ME INFORMATION FOR
-0.3010 ME MORE ABOUT
-0.3010 ME PRICES FOR
-0.3010 ME PRICING FOR
-0.6021 ME REVIEWS ABOUT
-0.6021 ME REVIEWS FOR
-0.7782 ME SOME INFORMATION
-1.0792 ME SOME PRICES
-1.0792 ME SOME PRICING
-0.7782 ME SOME REVIEWS
-0.3010 MEET HE WITH
-0.3010 MEET HER WITH
-0.3010 MEET HIM WITH
-0.3010 MEET SHE WITH
-1.1405 MEET THAT CHICK
-1.0679 MEET THAT GENTLEMAN
-1.0058 MEET THAT GUY
-1.1405 MEET THAT LADY
-1.0058 MEET THAT MAN
-1.1405 MEET THAT WOMAN
-0.3010 MET HE WITH
-0.3010 MET HER WITH
-0.3010 MET HIM WITH
-0.3010 MET SHE WITH
-1.2218 MET THAT CHICK
-1.0000 MET THAT GENTLEMAN
-1.0000 MET THAT GUY
-1.0969 MET THAT LADY
-1.0000 MET THAT MAN
-1.2218 MET THAT WOMAN
-0.3010 MINI FAN </s>
-0.3010 MONSTER </s> </s>
-0.3010 MONSTER DENTAL FLOSS
-2.2695 MORE ABOUT THA
-0.4003 MORE ABOUT THAT
-1.1234 MORE ABOUT THE
-2.2695 MORE ABOUT THIS
-1.7924 MORE ABOUT THOSE
-0.3010 MUSTACHE </s> </s>
-0.3010 OF PAPER </s>
-0.3010 OUTLET </s> </s>
-0.3010 OUTLET SPLITTER </s>
-0.3010 PAD </s> </s>
-0.3010 PAD OF PAPER
-0.3010 PAPER </s> </s>
-0.3010 PAPER PUNCH </s>
-0.3010 PENCIL SHARPENER </s>
-0.3010 PEPPER CONTAINER </s>
-0.3010 PEPPER SHAKERS </s>
-0.3010 PILLOW </s> </s>
-0.3010 PINK PENCIL SHARPENER
-0.3010 PIXEL PAD </s>
-0.3010 POWER OUTLET </s>
-2.2695 PRICES FOR THA
-0.4003 PRICES FOR THAT
-1.1234 PRICES FOR THE
-2.2695 PRICES FOR THIS
-1.7924 PRICES FOR THOSE
-2.2695 PRICING FOR THA
-0.4003 PRICING FOR THAT
-1.1234 PRICING FOR THE
-2.2695 PRICING FOR THIS
-1.7924 PRICING FOR THOSE
-0.3010 PUNCH </s> </s>
-0.3010 RED BEETLE </s>
-0.3010 RED LADYBUG </s>
-0.3010 RED LOCK </s>
-0.3010 RED TIDE DETERGENT
-2.2695 REVIEWS ABOUT THA
-0.4003 REVIEWS ABOUT THAT
-1.1234 REVIEWS ABOUT THE
-2.2695 REVIEWS ABOUT THIS
-1.7924 REVIEWS ABOUT THOSE
-2.2695 REVIEWS FOR THA
-0.4003 REVIEWS FOR THAT
-1.1234 REVIEWS FOR THE
-2.2695 REVIEWS FOR THIS
-1.7924 REVIEWS FOR THOSE
-0.3010 RUBBER DUCKY TIMER
-0.3010 SALT AND PEPPER
-0.3010 SEEN HE WITH
-0.3010 SEEN HER WITH
-0.3010 SEEN HIM WITH
-0.3010 SEEN SHE WITH
-1.0792 SEEN THAT CHICK
-1.0792 SEEN THAT GENTLEMAN
-1.0792 SEEN THAT GUY
-1.0792 SEEN THAT LADY
-1.0792 SEEN THAT MAN
-1.0792 SEEN THAT WOMAN
-0.3010 SHAKERS </s> </s>
-0.3010 SHAMPOO </s> </s>
-0.3010 SHAMPOO IN THE
-0.3010 SHARPENER </s> </s>
-0.3010 SHE WITH THE
-0.3010 SHOULDERS SHAMPOO </s>
-0.6021 SHOW INFORMATION ABOUT
-0.6021 SHOW INFORMATION FOR
-1.0792 SHOW ME INFORMATION
-1.3802 SHOW ME PRICES
-1.3802 SHOW ME PRICING
-1.0792 SHOW ME REVIEWS
-0.6021 SHOW ME SOME
-0.3010 SHOW PRICES FOR
-0.3010 SHOW PRICING FOR
-0.6021 SHOW REVIEWS ABOUT
-0.6021 SHOW REVIEWS FOR
-0.7782 SHOW SOME INFORMATION
-1.0792 SHOW SOME PRICES
-1.0792 SHOW SOME PRICING
-0.7782 SHOW SOME REVIEWS
-0.3010 SMALL FAN </s>
-0.3010 SOLAR LADYBUG KEYCHAIN
-0.6021 SOME INFORMATION ABOUT
-0.6021 SOME INFORMATION FOR
-0.3010 SOME PRICES FOR
-0.3010 SOME PRICING FOR
-0.6021 SOME REVIEWS ABOUT
-0.6021 SOME REVIEWS FOR
-0.3010 SPEED STICK DEODORANT
-0.3010 SPLITTER </s> </s>
-0.3010 SQUIRREL </s> </s>
-0.3010 SQUIRREL SHARPENER </s>
-0.3010 STAPLER </s> </s>
-0.3010 STICK DEODORANT </s>
-0.3010 STUFF IN THE
-0.3010 SWINGLINE STAPLER </s>
-0.7782 TELL ME ABOUT
-0.4771 TELL ME MORE
-0.3010 THA USB AIRPLANE
-0.3010 THAT AIRPLANE FAN
-0.6021 THAT BEAR </s>
-0.6021 THAT BEAR PILLOW
-0.3010 THAT BEETLE KITCHEN
-0.3010 THAT BLACK LOCK
-0.7782 THAT BLUE AND
-0.7782 THAT BLUE MINI
-0.7782 THAT BLUE MONSTER
-0.3010 THAT BROWN BEAR
-0.3010 THAT BUG LIGHT
-0.3010 THAT CHICK WITH
-0.3010 THAT CLEANER IN
-0.3010 THAT COMPACT STAPLER
-0.6021 THAT CREAM </s>
-0.6021 THAT CREAM IN
-0.3010 THAT DENTAL FLOSS
-0.3010 THAT DEODORANT </s>
-0.6021 THAT DETERGENT </s>
-0.6021 THAT DETERGENT BOTTLE
-0.3010 THAT DISINFECT WIPES
-0.3010 THAT DUCK CLOCK
-0.3010 THAT DUSTER </s>
-0.3010 THAT EXPO CLEANER
-0.3010 THAT FLOSS </s>
-0.3010 THAT FRUCTIS IN
-0.3010 THAT GENTLEMAN WITH
-0.3010 THAT GUY WITH
-0.3010 THAT HAND PAD
-0.3010 THAT HEAD AND
-0.3010 THAT HEAVY LOCK
-0.3010 THAT HOLE PUNCH
-0.3010 THAT LADY WITH
-0.7782 THAT LADYBUG KITCHEN
-0.7782 THAT LADYBUG LIGHT
-0.7782 THAT LADYBUG TIMER
-0.3010 THAT LIGHTNING BOLT
-0.3010 THAT MAN WITH
-0.3010 THAT MASTER LOCK
-0.6021 THAT MAXELL BLAST
-0.6021 THAT MAXELL DUSTER
-0.3010 THAT MINI FAN
-0.6021 THAT MONSTER </s>
-0.6021 THAT MONSTER DENTAL
-0.3010 THAT OUTLET </s>
-0.3010 THAT PAPER PUNCH
-0.3010 THAT PENCIL SHARPENER
-0.3010 THAT PEPPER CONTAINER
-0.3010 THAT PILLOW </s>
-0.3010 THAT PINK PENCIL
-0.3010 THAT PIXEL PAD
-0.3010 THAT PUNCH </s>
-0.9031 THAT RED BEETLE
-0.9031 THAT RED LADYBUG
-0.9031 THAT RED LOCK
-0.9031 THAT RED TIDE
-0.3010 THAT SALT AND
-0.6021 THAT SHAMPOO </s>
-0.6021 THAT SHAMPOO IN
-0.3010 THAT SHARPENER </s>
-0.3010 THAT SMALL FAN
-0.3010 THAT SPEED STICK
-0.3010 THAT SQUIRREL SHARPENER
-0.3010 THAT STAPLER </s>
-0.3010 THAT STUFF IN
-0.3010 THAT SWINGLINE STAPLER
-0.3010 THAT THING WITH
-0.3010 THAT TIDE DETERGENT
-0.3010 THAT TINY FAN
-0.3010 THAT USB FAN
-0.3010 THAT VASELINE </s>
-0.9031 THAT WHITE HAND
-0.6021 THAT WHITE OUTLET
-0.9031 THAT WHITE POWER
-0.3010 THAT WOMAN WITH
-0.9031 THAT YELLOW DISINFECTANT
-0.6021 THAT YELLOW DUCK
-0.9031 THAT YELLOW TUBE
-0.6021 THE ADVANCE CLOCK
-0.6021 THE ADVANCE DIGITAL
-0.3010 THE BEARD </s>
-0.6021 THE BLACK AND
-0.6021 THE BLACK MAXELL
-0.3010 THE BLUE AND
-0.3010 THE BROWN BEAR
-0.3010 THE CLEANER </s>
-0.3010 THE CLEANSER </s>
-0.3010 THE DARK HAIR
-0.3010 THE DIGITAL CLOCK
-0.3010 THE FRUCTIS SHAMPOO
-0.3010 THE GLASSES </s>
-0.3010 THE GREEN BOTTLE
-0.3010 THE HAND PAD
-0.3010 THE LADYBUG KEYCHAIN
-0.3010 THE LIGHT HAIR
-0.3010 THE MUSTACHE </s>
-0.3010 THE RUBBER DUCKY
-0.3010 THE SOLAR LADYBUG
-0.3010 THE SQUIRREL </s>
-0.9031 THE YELLOW BOTTLE
-0.4260 THE YELLOW TUBE
-0.3010 THING WITH THE
-0.3010 THIS LADYBUG LIGHT
-0.3010 THOSE BLACK AND
-0.3010 THOSE FINGERS </s>
-0.3010 THOSE LYSOL DISINFECTANT
-0.6021 TIDE DETERGENT </s>
-0.6021 TIDE DETERGENT LIQUID
-0.3010 TIMER </s> </s>
-0.3010 TINY FAN </s>
-0.3010 TUBE </s> </s>
-0.3010 USB AIRPLANE FAN
-0.3010 USB FAN </s>
-0.3010 VASELINE </s> </s>
-0.3010 WHAT CAN YOU
-2.2695 WHAT IS THA
-0.4003 WHAT IS THAT
-1.1234 WHAT IS THE
-2.2695 WHAT IS THIS
-1.7924 WHAT IS THOSE
-0.3010 WHEN DID I
-0.3010 WHERE DID I
-0.3010 WHERE HAVE I
-0.3010 WHITE BOTTLE </s>
-0.3010 WHITE FACES </s>
-0.3010 WHITE HAND LIKE
-0.6021 WHITE OUTLET </s>
-0.6021 WHITE OUTLET SPLITTER
-0.3010 WHITE POWER OUTLET
-0.3010 WIPES </s> </s>
-0.3010 WIPES IN THE
-1.1018 WITH THE BEARD
-1.9744 WITH THE BLACK
-0.9571 WITH THE DARK
-0.9571 WITH THE GLASSES
-0.9571 WITH THE LIGHT
-1.1018 WITH THE MUSTACHE
-0.3010 WOMAN WITH THE
-0.3010 YELLOW BOTTLE </s>
-0.3010 YELLOW DISINFECTANT WIPES
-0.6021 YELLOW DUCK </s>
-0.6021 YELLOW DUCK TIMER
-0.3010 YELLOW TUBE </s>
-1.3802 YOU FIND INFORMATION
-0.6021 YOU FIND ME
-1.6812 YOU FIND PRICES
-1.6812 YOU FIND PRICING
-1.3802 YOU FIND REVIEWS
-0.9031 YOU FIND SOME
-1.3802 YOU GET INFORMATION
-0.6021 YOU GET ME
-1.6812 YOU GET PRICES
-1.6812 YOU GET PRICING
-1.3802 YOU GET REVIEWS
-0.9031 YOU GET SOME
-1.3802 YOU GIVE INFORMATION
-0.6021 YOU GIVE ME
-1.6812 YOU GIVE PRICES
-1.6812 YOU GIVE PRICING
-1.3802 YOU GIVE REVIEWS
-0.9031 YOU GIVE SOME
-1.3802 YOU SHOW INFORMATION
-0.6021 YOU SHOW ME
-1.6812 YOU SHOW PRICES
-1.6812 YOU SHOW PRICING
-1.3802 YOU SHOW REVIEWS
-0.9031 YOU SHOW SOME
-0.3010 YOU TELL ME

\end\
