Language model created by QuickLM on Sun Oct  7 01:43:54 EDT 2012
Copyright (c) 1996-2010 Carnegie Mellon University and Alexander I. Rudnicky

The model is in standard ARPA format, designed by Doug Paul while he was at MITRE.

The code that was used to produce this language model is available in Open Source.
Please visit http://www.speech.cs.cmu.edu/tools/ for more information

The (fixed) discount mass is 0.5. The backoffs are computed using the ratio method.
This model based on a corpus of 79 sentences and 41 words

\data\
ngram 1=42
ngram 2=68
ngram 3=99

\1-grams:
-1.1958 </s> -0.3010
-1.1958 <s> -0.2717
-1.7132 ABOUT -0.2751
-2.3153 ADAPTER -0.2724
-2.3153 AIRBORNE -0.2724
-1.6990 BEFORE -0.2648
-2.3153 BOOT -0.2724
-2.3153 BOTTLE -0.2724
-2.0142 CAN -0.2915
-2.3153 CAP -0.2724
-3.0934 CORRECT -0.2724
-2.7924 COULD -0.2915
-2.3153 DISK -0.2724
-1.7132 DO -0.2872
-1.9795 GIVE -0.2875
-3.0934 GOOD -0.3007
-2.3153 HALLS -0.2724
-1.7132 HOW -0.2925
-2.0142 INFORMATION -0.2925
-3.0934 JOB -0.2724
-2.0142 LIKE -0.2751
-1.5136 ME -0.2588
-3.0934 NO -0.2724
-3.0934 NOT -0.3007
-1.7132 OF -0.2751
-2.0142 OPTIONS -0.2925
-2.0142 PEOPLE -0.2968
-2.7924 PLEASE -0.2875
-2.3153 POWDER -0.2724
-2.0142 REVIEWS -0.2925
-2.0142 SEE -0.2751
-1.6955 SHOW -0.2875
-2.0142 SOME -0.2968
-3.0934 THANK -0.2915
-2.0142 THINK -0.2925
-1.2361 THIS -0.2751
-2.3153 TOY -0.2724
-2.3153 TUMBLER -0.2724
-2.3153 TUPPERWARE -0.2724
-2.3153 UMBRELLA -0.2724
-3.0934 WRONG -0.2724
-1.6621 YOU -0.2626

\2-grams:
-1.1195 <s> CAN 0.0000
-1.8976 <s> COULD 0.0000
-1.1195 <s> GIVE 0.0000
-2.1987 <s> GOOD 0.0000
-0.8184 <s> HOW 0.0000
-2.1987 <s> NO 0.0000
-2.1987 <s> NOT 0.0000
-0.8184 <s> SHOW 0.0000
-2.1987 <s> THANK 0.0000
-2.1987 <s> WRONG 0.0000
-0.3010 ABOUT THIS 0.0000
-0.3010 ADAPTER </s> -0.3010
-0.3010 AIRBORNE </s> -0.3010
-0.3010 BOOT </s> -0.3010
-0.3010 BOTTLE </s> -0.3010
-0.3010 CAN YOU -0.1919
-0.3010 CAP </s> -0.3010
-0.3010 CORRECT </s> -0.3010
-0.3010 COULD YOU -0.2846
-0.3010 DISK </s> -0.3010
-0.6021 DO PEOPLE 0.0000
-0.6021 DO YOU -0.1919
-0.3010 GIVE ME -0.2126
-0.3010 GOOD JOB 0.0000
-0.3010 HALLS </s> -0.3010
-0.3010 HOW DO 0.0000
-0.3010 INFORMATION ABOUT 0.0000
-0.3010 JOB </s> -0.3010
-0.3010 LIKE THIS 0.0000
-1.5798 ME </s> -0.3010
-0.8016 ME OPTIONS 0.0000
-0.8016 ME REVIEWS 0.0000
-0.8016 ME SOME 0.0000
-0.3010 NO </s> -0.3010
-0.3010 NOT CORRECT 0.0000
-0.3010 OF THIS 0.0000
-0.3010 OPTIONS OF 0.0000
-0.3010 PEOPLE THINK 0.0000
-0.6021 PLEASE GIVE 0.0000
-0.6021 PLEASE SHOW 0.0000
-0.3010 POWDER </s> -0.3010
-0.3010 REVIEWS ABOUT 0.0000
-0.3010 SEE THIS 0.0000
-0.3010 SHOW ME -0.1192
-0.3010 SOME INFORMATION 0.0000
-0.3010 THANK YOU -0.2929
-0.3010 THINK OF 0.0000
-1.3802 THIS ADAPTER 0.0000
-1.3802 THIS AIRBORNE 0.0000
-1.3802 THIS BOOT 0.0000
-1.3802 THIS BOTTLE 0.0000
-1.3802 THIS CAP 0.0000
-1.3802 THIS DISK 0.0000
-1.3802 THIS HALLS 0.0000
-1.3802 THIS POWDER 0.0000
-1.3802 THIS TOY 0.0000
-1.3802 THIS TUMBLER 0.0000
-1.3802 THIS TUPPERWARE 0.0000
-1.3802 THIS UMBRELLA 0.0000
-0.3010 TOY </s> -0.3010
-0.3010 TUMBLER </s> -0.3010
-0.3010 TUPPERWARE </s> -0.3010
-0.3010 UMBRELLA </s> -0.3010
-0.3010 WRONG </s> -0.3010
-1.7324 YOU </s> -0.3010
-0.6532 YOU LIKE 0.0000
-1.4314 YOU PLEASE 0.0000
-0.6532 YOU SEE 0.0000

\3-grams:
-0.3010 <s> CAN YOU
-0.3010 <s> COULD YOU
-0.3010 <s> GIVE ME
-0.3010 <s> GOOD JOB
-0.3010 <s> HOW DO
-0.3010 <s> NO </s>
-0.3010 <s> NOT CORRECT
-0.3010 <s> SHOW ME
-0.3010 <s> THANK YOU
-0.3010 <s> WRONG </s>
-1.3802 ABOUT THIS ADAPTER
-1.3802 ABOUT THIS AIRBORNE
-1.3802 ABOUT THIS BOOT
-1.3802 ABOUT THIS BOTTLE
-1.3802 ABOUT THIS CAP
-1.3802 ABOUT THIS DISK
-1.3802 ABOUT THIS HALLS
-1.3802 ABOUT THIS POWDER
-1.3802 ABOUT THIS TOY
-1.3802 ABOUT THIS TUMBLER
-1.3802 ABOUT THIS TUPPERWARE
-1.3802 ABOUT THIS UMBRELLA
-0.3010 CAN YOU SEE
-0.3010 COULD YOU PLEASE
-0.3010 DO PEOPLE THINK
-0.3010 DO YOU LIKE
-1.4150 GIVE ME </s>
-0.3358 GIVE ME OPTIONS
-0.3010 GOOD JOB </s>
-0.6021 HOW DO PEOPLE
-0.6021 HOW DO YOU
-0.3010 INFORMATION ABOUT THIS
-1.3802 LIKE THIS ADAPTER
-1.3802 LIKE THIS AIRBORNE
-1.3802 LIKE THIS BOOT
-1.3802 LIKE THIS BOTTLE
-1.3802 LIKE THIS CAP
-1.3802 LIKE THIS DISK
-1.3802 LIKE THIS HALLS
-1.3802 LIKE THIS POWDER
-1.3802 LIKE THIS TOY
-1.3802 LIKE THIS TUMBLER
-1.3802 LIKE THIS TUPPERWARE
-1.3802 LIKE THIS UMBRELLA
-0.3010 ME OPTIONS OF
-0.3010 ME REVIEWS ABOUT
-0.3010 ME SOME INFORMATION
-0.3010 NOT CORRECT </s>
-1.3802 OF THIS ADAPTER
-1.3802 OF THIS AIRBORNE
-1.3802 OF THIS BOOT
-1.3802 OF THIS BOTTLE
-1.3802 OF THIS CAP
-1.3802 OF THIS DISK
-1.3802 OF THIS HALLS
-1.3802 OF THIS POWDER
-1.3802 OF THIS TOY
-1.3802 OF THIS TUMBLER
-1.3802 OF THIS TUPPERWARE
-1.3802 OF THIS UMBRELLA
-0.3010 OPTIONS OF THIS
-0.3010 PEOPLE THINK OF
-0.3010 PLEASE GIVE ME
-0.3010 PLEASE SHOW ME
-0.3010 REVIEWS ABOUT THIS
-1.3802 SEE THIS ADAPTER
-1.3802 SEE THIS AIRBORNE
-1.3802 SEE THIS BOOT
-1.3802 SEE THIS BOTTLE
-1.3802 SEE THIS CAP
-1.3802 SEE THIS DISK
-1.3802 SEE THIS HALLS
-1.3802 SEE THIS POWDER
-1.3802 SEE THIS TOY
-1.3802 SEE THIS TUMBLER
-1.3802 SEE THIS TUPPERWARE
-1.3802 SEE THIS UMBRELLA
-1.6990 SHOW ME </s>
-0.6198 SHOW ME REVIEWS
-0.6198 SHOW ME SOME
-0.3010 SOME INFORMATION ABOUT
-0.3010 THANK YOU </s>
-0.3010 THINK OF THIS
-0.3010 THIS ADAPTER </s>
-0.3010 THIS AIRBORNE </s>
-0.3010 THIS BOOT </s>
-0.3010 THIS BOTTLE </s>
-0.3010 THIS CAP </s>
-0.3010 THIS DISK </s>
-0.3010 THIS HALLS </s>
-0.3010 THIS POWDER </s>
-0.3010 THIS TOY </s>
-0.3010 THIS TUMBLER </s>
-0.3010 THIS TUPPERWARE </s>
-0.3010 THIS UMBRELLA </s>
-0.3010 YOU LIKE THIS
-0.6021 YOU PLEASE GIVE
-0.6021 YOU PLEASE SHOW
-0.3010 YOU SEE THIS

\end\
