Language model created by QuickLM on Fri Oct  5 16:35:21 EDT 2012
Copyright (c) 1996-2010 Carnegie Mellon University and Alexander I. Rudnicky

The model is in standard ARPA format, designed by Doug Paul while he was at MITRE.

The code that was used to produce this language model is available in Open Source.
Please visit http://www.speech.cs.cmu.edu/tools/ for more information

The (fixed) discount mass is 0.5. The backoffs are computed using the ratio method.
This model based on a corpus of 100 sentences and 102 words

\data\
ngram 1=102
ngram 2=200
ngram 3=100

\1-grams:
-0.7782 </s> -0.3010
-0.7782 <s> -0.2218
-2.7782 ABORT -0.2218
-2.7782 ACCEPT -0.2218
-2.7782 ADAPT -0.2218
-2.7782 APPLE -0.2218
-2.7782 BEST -0.2218
-2.7782 BETRAY -0.2218
-2.7782 BLUE -0.2218
-2.7782 BOOT -0.2218
-2.7782 CANDIDATE -0.2218
-2.7782 CAP -0.2218
-2.7782 CAR -0.2218
-2.7782 COST -0.2218
-2.7782 COUNT -0.2218
-2.7782 DARK -0.2218
-2.7782 DAY -0.2218
-2.7782 DERIVATIVE -0.2218
-2.7782 DESKTOP -0.2218
-2.7782 EFFORT -0.2218
-2.7782 EIGHT -0.2218
-2.7782 ELECT -0.2218
-2.7782 EMBED -0.2218
-2.7782 EQUIP -0.2218
-2.7782 FAMILY -0.2218
-2.7782 FILE -0.2218
-2.7782 FIRE -0.2218
-2.7782 FIVE -0.2218
-2.7782 FORGET -0.2218
-2.7782 FOUR -0.2218
-2.7782 GIVE -0.2218
-2.7782 GLANCE -0.2218
-2.7782 GOLD -0.2218
-2.7782 GREEN -0.2218
-2.7782 HAPPY -0.2218
-2.7782 HIGH -0.2218
-2.7782 HOUR -0.2218
-2.7782 HOW -0.2218
-2.7782 IGNORE -0.2218
-2.7782 IMPLEMENT -0.2218
-2.7782 INCLUDE -0.2218
-2.7782 INCOME -0.2218
-2.7782 JEAN -0.2218
-2.7782 JOKE -0.2218
-2.7782 JOURNAL -0.2218
-2.7782 JUICE -0.2218
-2.7782 KEEP -0.2218
-2.7782 KILL -0.2218
-2.7782 KOREA -0.2218
-2.7782 LABOR -0.2218
-2.7782 LAUNCH -0.2218
-2.7782 LIFE -0.2218
-2.7782 LIMIT -0.2218
-2.7782 MAKE -0.2218
-2.7782 MASTER -0.2218
-2.7782 MOMENT -0.2218
-2.7782 NEED -0.2218
-2.7782 NINE -0.2218
-2.7782 NOBODY -0.2218
-2.7782 NOISE -0.2218
-2.7782 OFFICE -0.2218
-2.7782 OLYMPICS -0.2218
-2.7782 ONE -0.2218
-2.7782 OPEN -0.2218
-2.7782 OPERATE -0.2218
-2.7782 PAGE -0.2218
-2.7782 PEOPLE -0.2218
-2.7782 PROCESS -0.2218
-2.7782 QUALIFY -0.2218
-2.7782 QUESTION -0.2218
-2.7782 QUICK -0.2218
-2.7782 RACE -0.2218
-2.7782 RAIN -0.2218
-2.7782 REACH -0.2218
-2.7782 RECORD -0.2218
-2.7782 SEVEN -0.2218
-2.7782 SIX -0.2218
-2.7782 SPECIFIC -0.2218
-2.7782 STRANGE -0.2218
-2.7782 TEN -0.2218
-2.7782 THREE -0.2218
-2.7782 TOY -0.2218
-2.7782 TRUE -0.2218
-2.7782 TURN -0.2218
-2.7782 TWO -0.2218
-2.7782 TYPE -0.2218
-2.7782 UNIQUE -0.2218
-2.7782 UP -0.2218
-2.7782 URBAN -0.2218
-2.7782 VALUE -0.2218
-2.7782 VISION -0.2218
-2.7782 VOICE -0.2218
-2.7782 WANT -0.2218
-2.7782 WEEK -0.2218
-2.7782 WHAT -0.2218
-2.7782 WHY -0.2218
-2.7782 WRONG -0.2218
-2.7782 YEAR -0.2218
-2.7782 YES -0.2218
-2.7782 YOU -0.2218
-2.7782 YOUNG -0.2218
-2.7782 ZERO -0.2218

\2-grams:
-2.3010 <s> ABORT 0.0000
-2.3010 <s> ACCEPT 0.0000
-2.3010 <s> ADAPT 0.0000
-2.3010 <s> APPLE 0.0000
-2.3010 <s> BEST 0.0000
-2.3010 <s> BETRAY 0.0000
-2.3010 <s> BLUE 0.0000
-2.3010 <s> BOOT 0.0000
-2.3010 <s> CANDIDATE 0.0000
-2.3010 <s> CAP 0.0000
-2.3010 <s> CAR 0.0000
-2.3010 <s> COST 0.0000
-2.3010 <s> COUNT 0.0000
-2.3010 <s> DARK 0.0000
-2.3010 <s> DAY 0.0000
-2.3010 <s> DERIVATIVE 0.0000
-2.3010 <s> DESKTOP 0.0000
-2.3010 <s> EFFORT 0.0000
-2.3010 <s> EIGHT 0.0000
-2.3010 <s> ELECT 0.0000
-2.3010 <s> EMBED 0.0000
-2.3010 <s> EQUIP 0.0000
-2.3010 <s> FAMILY 0.0000
-2.3010 <s> FILE 0.0000
-2.3010 <s> FIRE 0.0000
-2.3010 <s> FIVE 0.0000
-2.3010 <s> FORGET 0.0000
-2.3010 <s> FOUR 0.0000
-2.3010 <s> GIVE 0.0000
-2.3010 <s> GLANCE 0.0000
-2.3010 <s> GOLD 0.0000
-2.3010 <s> GREEN 0.0000
-2.3010 <s> HAPPY 0.0000
-2.3010 <s> HIGH 0.0000
-2.3010 <s> HOUR 0.0000
-2.3010 <s> HOW 0.0000
-2.3010 <s> IGNORE 0.0000
-2.3010 <s> IMPLEMENT 0.0000
-2.3010 <s> INCLUDE 0.0000
-2.3010 <s> INCOME 0.0000
-2.3010 <s> JEAN 0.0000
-2.3010 <s> JOKE 0.0000
-2.3010 <s> JOURNAL 0.0000
-2.3010 <s> JUICE 0.0000
-2.3010 <s> KEEP 0.0000
-2.3010 <s> KILL 0.0000
-2.3010 <s> KOREA 0.0000
-2.3010 <s> LABOR 0.0000
-2.3010 <s> LAUNCH 0.0000
-2.3010 <s> LIFE 0.0000
-2.3010 <s> LIMIT 0.0000
-2.3010 <s> MAKE 0.0000
-2.3010 <s> MASTER 0.0000
-2.3010 <s> MOMENT 0.0000
-2.3010 <s> NEED 0.0000
-2.3010 <s> NINE 0.0000
-2.3010 <s> NOBODY 0.0000
-2.3010 <s> NOISE 0.0000
-2.3010 <s> OFFICE 0.0000
-2.3010 <s> OLYMPICS 0.0000
-2.3010 <s> ONE 0.0000
-2.3010 <s> OPEN 0.0000
-2.3010 <s> OPERATE 0.0000
-2.3010 <s> PAGE 0.0000
-2.3010 <s> PEOPLE 0.0000
-2.3010 <s> PROCESS 0.0000
-2.3010 <s> QUALIFY 0.0000
-2.3010 <s> QUESTION 0.0000
-2.3010 <s> QUICK 0.0000
-2.3010 <s> RACE 0.0000
-2.3010 <s> RAIN 0.0000
-2.3010 <s> REACH 0.0000
-2.3010 <s> RECORD 0.0000
-2.3010 <s> SEVEN 0.0000
-2.3010 <s> SIX 0.0000
-2.3010 <s> SPECIFIC 0.0000
-2.3010 <s> STRANGE 0.0000
-2.3010 <s> TEN 0.0000
-2.3010 <s> THREE 0.0000
-2.3010 <s> TOY 0.0000
-2.3010 <s> TRUE 0.0000
-2.3010 <s> TURN 0.0000
-2.3010 <s> TWO 0.0000
-2.3010 <s> TYPE 0.0000
-2.3010 <s> UNIQUE 0.0000
-2.3010 <s> UP 0.0000
-2.3010 <s> URBAN 0.0000
-2.3010 <s> VALUE 0.0000
-2.3010 <s> VISION 0.0000
-2.3010 <s> VOICE 0.0000
-2.3010 <s> WANT 0.0000
-2.3010 <s> WEEK 0.0000
-2.3010 <s> WHAT 0.0000
-2.3010 <s> WHY 0.0000
-2.3010 <s> WRONG 0.0000
-2.3010 <s> YEAR 0.0000
-2.3010 <s> YES 0.0000
-2.3010 <s> YOU 0.0000
-2.3010 <s> YOUNG 0.0000
-2.3010 <s> ZERO 0.0000
-0.3010 ABORT </s> -0.3010
-0.3010 ACCEPT </s> -0.3010
-0.3010 ADAPT </s> -0.3010
-0.3010 APPLE </s> -0.3010
-0.3010 BEST </s> -0.3010
-0.3010 BETRAY </s> -0.3010
-0.3010 BLUE </s> -0.3010
-0.3010 BOOT </s> -0.3010
-0.3010 CANDIDATE </s> -0.3010
-0.3010 CAP </s> -0.3010
-0.3010 CAR </s> -0.3010
-0.3010 COST </s> -0.3010
-0.3010 COUNT </s> -0.3010
-0.3010 DARK </s> -0.3010
-0.3010 DAY </s> -0.3010
-0.3010 DERIVATIVE </s> -0.3010
-0.3010 DESKTOP </s> -0.3010
-0.3010 EFFORT </s> -0.3010
-0.3010 EIGHT </s> -0.3010
-0.3010 ELECT </s> -0.3010
-0.3010 EMBED </s> -0.3010
-0.3010 EQUIP </s> -0.3010
-0.3010 FAMILY </s> -0.3010
-0.3010 FILE </s> -0.3010
-0.3010 FIRE </s> -0.3010
-0.3010 FIVE </s> -0.3010
-0.3010 FORGET </s> -0.3010
-0.3010 FOUR </s> -0.3010
-0.3010 GIVE </s> -0.3010
-0.3010 GLANCE </s> -0.3010
-0.3010 GOLD </s> -0.3010
-0.3010 GREEN </s> -0.3010
-0.3010 HAPPY </s> -0.3010
-0.3010 HIGH </s> -0.3010
-0.3010 HOUR </s> -0.3010
-0.3010 HOW </s> -0.3010
-0.3010 IGNORE </s> -0.3010
-0.3010 IMPLEMENT </s> -0.3010
-0.3010 INCLUDE </s> -0.3010
-0.3010 INCOME </s> -0.3010
-0.3010 JEAN </s> -0.3010
-0.3010 JOKE </s> -0.3010
-0.3010 JOURNAL </s> -0.3010
-0.3010 JUICE </s> -0.3010
-0.3010 KEEP </s> -0.3010
-0.3010 KILL </s> -0.3010
-0.3010 KOREA </s> -0.3010
-0.3010 LABOR </s> -0.3010
-0.3010 LAUNCH </s> -0.3010
-0.3010 LIFE </s> -0.3010
-0.3010 LIMIT </s> -0.3010
-0.3010 MAKE </s> -0.3010
-0.3010 MASTER </s> -0.3010
-0.3010 MOMENT </s> -0.3010
-0.3010 NEED </s> -0.3010
-0.3010 NINE </s> -0.3010
-0.3010 NOBODY </s> -0.3010
-0.3010 NOISE </s> -0.3010
-0.3010 OFFICE </s> -0.3010
-0.3010 OLYMPICS </s> -0.3010
-0.3010 ONE </s> -0.3010
-0.3010 OPEN </s> -0.3010
-0.3010 OPERATE </s> -0.3010
-0.3010 PAGE </s> -0.3010
-0.3010 PEOPLE </s> -0.3010
-0.3010 PROCESS </s> -0.3010
-0.3010 QUALIFY </s> -0.3010
-0.3010 QUESTION </s> -0.3010
-0.3010 QUICK </s> -0.3010
-0.3010 RACE </s> -0.3010
-0.3010 RAIN </s> -0.3010
-0.3010 REACH </s> -0.3010
-0.3010 RECORD </s> -0.3010
-0.3010 SEVEN </s> -0.3010
-0.3010 SIX </s> -0.3010
-0.3010 SPECIFIC </s> -0.3010
-0.3010 STRANGE </s> -0.3010
-0.3010 TEN </s> -0.3010
-0.3010 THREE </s> -0.3010
-0.3010 TOY </s> -0.3010
-0.3010 TRUE </s> -0.3010
-0.3010 TURN </s> -0.3010
-0.3010 TWO </s> -0.3010
-0.3010 TYPE </s> -0.3010
-0.3010 UNIQUE </s> -0.3010
-0.3010 UP </s> -0.3010
-0.3010 URBAN </s> -0.3010
-0.3010 VALUE </s> -0.3010
-0.3010 VISION </s> -0.3010
-0.3010 VOICE </s> -0.3010
-0.3010 WANT </s> -0.3010
-0.3010 WEEK </s> -0.3010
-0.3010 WHAT </s> -0.3010
-0.3010 WHY </s> -0.3010
-0.3010 WRONG </s> -0.3010
-0.3010 YEAR </s> -0.3010
-0.3010 YES </s> -0.3010
-0.3010 YOU </s> -0.3010
-0.3010 YOUNG </s> -0.3010
-0.3010 ZERO </s> -0.3010

\3-grams:
-0.3010 <s> ABORT </s>
-0.3010 <s> ACCEPT </s>
-0.3010 <s> ADAPT </s>
-0.3010 <s> APPLE </s>
-0.3010 <s> BEST </s>
-0.3010 <s> BETRAY </s>
-0.3010 <s> BLUE </s>
-0.3010 <s> BOOT </s>
-0.3010 <s> CANDIDATE </s>
-0.3010 <s> CAP </s>
-0.3010 <s> CAR </s>
-0.3010 <s> COST </s>
-0.3010 <s> COUNT </s>
-0.3010 <s> DARK </s>
-0.3010 <s> DAY </s>
-0.3010 <s> DERIVATIVE </s>
-0.3010 <s> DESKTOP </s>
-0.3010 <s> EFFORT </s>
-0.3010 <s> EIGHT </s>
-0.3010 <s> ELECT </s>
-0.3010 <s> EMBED </s>
-0.3010 <s> EQUIP </s>
-0.3010 <s> FAMILY </s>
-0.3010 <s> FILE </s>
-0.3010 <s> FIRE </s>
-0.3010 <s> FIVE </s>
-0.3010 <s> FORGET </s>
-0.3010 <s> FOUR </s>
-0.3010 <s> GIVE </s>
-0.3010 <s> GLANCE </s>
-0.3010 <s> GOLD </s>
-0.3010 <s> GREEN </s>
-0.3010 <s> HAPPY </s>
-0.3010 <s> HIGH </s>
-0.3010 <s> HOUR </s>
-0.3010 <s> HOW </s>
-0.3010 <s> IGNORE </s>
-0.3010 <s> IMPLEMENT </s>
-0.3010 <s> INCLUDE </s>
-0.3010 <s> INCOME </s>
-0.3010 <s> JEAN </s>
-0.3010 <s> JOKE </s>
-0.3010 <s> JOURNAL </s>
-0.3010 <s> JUICE </s>
-0.3010 <s> KEEP </s>
-0.3010 <s> KILL </s>
-0.3010 <s> KOREA </s>
-0.3010 <s> LABOR </s>
-0.3010 <s> LAUNCH </s>
-0.3010 <s> LIFE </s>
-0.3010 <s> LIMIT </s>
-0.3010 <s> MAKE </s>
-0.3010 <s> MASTER </s>
-0.3010 <s> MOMENT </s>
-0.3010 <s> NEED </s>
-0.3010 <s> NINE </s>
-0.3010 <s> NOBODY </s>
-0.3010 <s> NOISE </s>
-0.3010 <s> OFFICE </s>
-0.3010 <s> OLYMPICS </s>
-0.3010 <s> ONE </s>
-0.3010 <s> OPEN </s>
-0.3010 <s> OPERATE </s>
-0.3010 <s> PAGE </s>
-0.3010 <s> PEOPLE </s>
-0.3010 <s> PROCESS </s>
-0.3010 <s> QUALIFY </s>
-0.3010 <s> QUESTION </s>
-0.3010 <s> QUICK </s>
-0.3010 <s> RACE </s>
-0.3010 <s> RAIN </s>
-0.3010 <s> REACH </s>
-0.3010 <s> RECORD </s>
-0.3010 <s> SEVEN </s>
-0.3010 <s> SIX </s>
-0.3010 <s> SPECIFIC </s>
-0.3010 <s> STRANGE </s>
-0.3010 <s> TEN </s>
-0.3010 <s> THREE </s>
-0.3010 <s> TOY </s>
-0.3010 <s> TRUE </s>
-0.3010 <s> TURN </s>
-0.3010 <s> TWO </s>
-0.3010 <s> TYPE </s>
-0.3010 <s> UNIQUE </s>
-0.3010 <s> UP </s>
-0.3010 <s> URBAN </s>
-0.3010 <s> VALUE </s>
-0.3010 <s> VISION </s>
-0.3010 <s> VOICE </s>
-0.3010 <s> WANT </s>
-0.3010 <s> WEEK </s>
-0.3010 <s> WHAT </s>
-0.3010 <s> WHY </s>
-0.3010 <s> WRONG </s>
-0.3010 <s> YEAR </s>
-0.3010 <s> YES </s>
-0.3010 <s> YOU </s>
-0.3010 <s> YOUNG </s>
-0.3010 <s> ZERO </s>

\end\
